{"learner":{"attributes":{"scikit_learn":"{\"_estimator_type\": \"regressor\"}"},"feature_names":["temperature_2m_mean","precipitation_sum","wind_speed_10m_max","wind_direction_10m_dominant"],"feature_types":["float","float","float","float"],"gradient_booster":{"model":{"gbtree_model_param":{"num_parallel_tree":"1","num_trees":"100"},"iteration_indptr":[0,1,2,3,4,5,6,7,8,9,10,11,12,13,14,15,16,17,18,19,20,21,22,23,24,25,26,27,28,29,30,31,32,33,34,35,36,37,38,39,40,41,42,43,44,45,46,47,48,49,50,51,52,53,54,55,56,57,58,59,60,61,62,63,64,65,66,67,68,69,70,71,72,73,74,75,76,77,78,79,80,81,82,83,84,85,86,87,88,89,90,91,92,93,94,95,96,97,98,99,100],"tree_info":[0,0,0,0,0,0,0,0,0,0,0,0,0,0,0,0,0,0,0,0,0,0,0,0,0,0,0,0,0,0,0,0,0,0,0,0,0,0,0,0,0,0,0,0,0,0,0,0,0,0,0,0,0,0,0,0,0,0,0,0,0,0,0,0,0,0,0,0,0,0,0,0,0,0,0,0,0,0,0,0,0,0,0,0,0,0,0,0,0,0,0,0,0,0,0,0,0,0,0,0],"trees":[{"base_weights":[6.592252E-7,4.5366707E0,-4.6738324E0,-2.256847E0,5.6322684E0,3.4044797E0,-5.9818344E0,-6.027661E-2,-8.085048E0,7.7534328E0,1.9441295E0,1.0167268E1,5.391527E-1,-4.0589504E0,-8.215045E0,2.6948636E0,-4.0710897E0,-8.810807E0,4.9925536E-1,8.312546E0,-2.0496886E0,4.058155E0,-1.1594969E0,1.3309905E1,3.5122762E0,4.567268E0,-2.3450747E0,-1.754286E0,-5.048714E0,-5.191173E0,-9.786435E0,1.2309893E0,1.626481E1,-4.9537435E0,6.0992556E0,-4.6982503E0,-1.1121733E1,4.781111E0,-2.2033346E0,7.999254E0,1.6186605E1,-8.7067585E0,2.5591063E0,6.0353403E0,6.438159E-1,1.3639057E0,-3.557865E0,1.1150613E1,2.4899256E1,1.2264811E1,-2.6154366E0,6.6522174E0,-9.305601E-1,-4.308609E0,7.652987E0,3.0687985E0,-3.599072E0,-5.3315043E0,4.2524788E-1,-2.530213E0,-6.5786543E0,-1.035084E1,-7.0432544E0,2.8143196E0,-3.8290164E-1,5.716656E-1,7.349777E0,-1.9297369E0,1.9036904E-1,3.4311106E0,5.716656E-1,-2.6002483E0,-3.0707204E-1,-3.6769712E0,-2.1335816E0,2.6909301E0,1.6825112E0,5.111732E0,-7.6888967E-1,-6.1888963E-1,-2.6979182E0,4.9390464E0,-8.094751E-1,1.5888736E0,1.0171666E1,-2.6674655E-1,3.7292917E0,1.289727E0,-5.440226E-1,-1.4909863E-1,-1.5473086E0,4.124733E0,1.4111098E0,8.371666E0,1.9311105E0,2.1685174E0,5.4748144E0,-2.1814828E0,5.2476066E-1,2.4384012E0,1.9975181E-1,-1.1425655E0,2.5966656E0,-1.738427E-1,-2.5139802E0,-1.3783345E0,3.5359988E0,2.2734802E0,-8.839628E-1,1.5090138E-1,-1.4479929E0,-1.2147449E0,-1.9493935E0,1.2961892E0,-3.9166805E-1,7.6947236E-1,-1.3739145E0,-2.1779795E0,7.664185E-1,-3.1520321E0,-8.038108E-1,1.2897767E0,-2.3698866E0],"categories":[],"categories_nodes":[],"categories_segments":[],"categories_sizes":[],"default_left":[0,0,0,0,0,0,0,0,0,0,0,0,0,0,0,0,0,0,0,0,0,0,0,0,0,0,0,0,0,0,0,0,0,0,0,0,0,0,0,0,0,0,0,0,0,0,0,0,0,0,0,0,0,0,0,0,0,0,0,0,0,0,0,0,0,0,0,0,0,0,0,0,0,0,0,0,0,0,0,0,0,0,0,0,0,0,0,0,0,0,0,0,0,0,0,0,0,0,0,0,0,0,0,0,0,0,0,0,0,0,0,0,0,0,0,0,0,0,0,0,0,0,0],"id":0,"left_children":[1,3,5,7,9,11,13,15,17,19,21,23,25,27,29,31,33,35,37,39,41,43,45,47,49,51,53,55,57,59,61,63,65,67,69,71,73,-1,-1,75,77,79,81,83,85,87,89,91,93,95,97,99,101,103,105,107,109,111,113,115,117,119,121,-1,-1,-1,-1,-1,-1,-1,-1,-1,-1,-1,-1,-1,-1,-1,-1,-1,-1,-1,-1,-1,-1,-1,-1,-1,-1,-1,-1,-1,-1,-1,-1,-1,-1,-1,-1,-1,-1,-1,-1,-1,-1,-1,-1,-1,-1,-1,-1,-1,-1,-1,-1,-1,-1,-1,-1,-1,-1,-1,-1],"loss_changes":[5.6952977E4,1.0157469E4,1.3999771E4,2.4319026E3,9.169305E3,3.579374E3,4.857758E3,1.5469701E3,3.2836646E2,4.100422E3,2.8259976E3,1.1035347E3,1.5326685E3,1.3917227E3,2.448582E3,1.628748E3,5.4189703E2,4.0393042E2,7.2249554E2,1.6096641E3,1.2802054E3,1.7243145E3,1.0639609E3,6.482754E2,1.0511051E3,6.366384E2,1.544602E3,1.6659908E3,6.6635156E2,6.553042E2,4.612461E2,1.565027E3,8.992395E2,4.4204736E2,9.013144E1,2.6825626E2,4.9345947E1,0E0,0E0,1.5275547E3,4.5925586E2,1.3783813E1,1.8719299E3,3.1574253E3,1.7276431E3,8.098322E2,4.381549E2,4.881538E2,9.78855E1,1.0921277E2,2.5658966E2,3.479729E2,4.743851E2,9.820072E2,7.123032E2,1.4328812E3,6.8223254E2,5.8399023E2,1.5396835E2,6.800639E2,7.590088E2,3.1158008E2,6.361902E2,0E0,0E0,0E0,0E0,0E0,0E0,0E0,0E0,0E0,0E0,0E0,0E0,0E0,0E0,0E0,0E0,0E0,0E0,0E0,0E0,0E0,0E0,0E0,0E0,0E0,0E0,0E0,0E0,0E0,0E0,0E0,0E0,0E0,0E0,0E0,0E0,0E0,0E0,0E0,0E0,0E0,0E0,0E0,0E0,0E0,0E0,0E0,0E0,0E0,0E0,0E0,0E0,0E0,0E0,0E0,0E0,0E0,0E0,0E0,0E0],"parents":[2147483647,0,0,1,1,2,2,3,3,4,4,5,5,6,6,7,7,8,8,9,9,10,10,11,11,12,12,13,13,14,14,15,15,16,16,17,17,18,18,19,19,20,20,21,21,22,22,23,23,24,24,25,25,26,26,27,27,28,28,29,29,30,30,31,31,32,32,33,33,34,34,35,35,36,36,39,39,40,40,41,41,42,42,43,43,44,44,45,45,46,46,47,47,48,48,49,49,50,50,51,51,52,52,53,53,54,54,55,55,56,56,57,57,58,58,59,59,60,60,61,61,62,62],"right_children":[2,4,6,8,10,12,14,16,18,20,22,24,26,28,30,32,34,36,38,40,42,44,46,48,50,52,54,56,58,60,62,64,66,68,70,72,74,-1,-1,76,78,80,82,84,86,88,90,92,94,96,98,100,102,104,106,108,110,112,114,116,118,120,122,-1,-1,-1,-1,-1,-1,-1,-1,-1,-1,-1,-1,-1,-1,-1,-1,-1,-1,-1,-1,-1,-1,-1,-1,-1,-1,-1,-1,-1,-1,-1,-1,-1,-1,-1,-1,-1,-1,-1,-1,-1,-1,-1,-1,-1,-1,-1,-1,-1,-1,-1,-1,-1,-1,-1,-1,-1,-1,-1,-1],"split_conditions":[2.227688E2,4.3674377E1,1.3138765E1,1.945333E1,1.8422476E2,1.0685391E1,2.7663486E2,4.795667E0,1.85E1,2.427265E1,1E0,8.712333E0,2.8560832E0,2.4039288E2,1.6610792E1,4.033167E0,1.9726915E1,2.167487E1,3.2066667E-1,2.1943583E1,1.2939665E2,1.4078999E1,2.0188908E1,6.829E0,2.5307248E2,1.257426E1,1.8678999E1,1E-1,1.8368584E1,-2.0849998E-1,3.3924277E2,1.1183201E1,2.3323118E1,1.7169018E1,3.542523E1,2.0456745E1,2.148416E1,4.781111E0,-2.2033346E0,2.1000001E0,2.1261345E1,7E-1,1.5822774E2,1.3722749E1,2.2558167E1,1.0862334E1,3.3000002E0,-1.2772498E0,1E-1,9.3E0,1.4999832E1,3.2778796E2,1.2979984E1,2.7503986E2,2.3369539E2,6.829E0,1.5978486E1,1E-1,2.4865633E2,1.4003029E1,1.8239416E1,1.24E1,-4.5626664E0,2.8143196E0,-3.8290164E-1,5.716656E-1,7.349777E0,-1.9297369E0,1.9036904E-1,3.4311106E0,5.716656E-1,-2.6002483E0,-3.0707204E-1,-3.6769712E0,-2.1335816E0,2.6909301E0,1.6825112E0,5.111732E0,-7.6888967E-1,-6.1888963E-1,-2.6979182E0,4.9390464E0,-8.094751E-1,1.5888736E0,1.0171666E1,-2.6674655E-1,3.7292917E0,1.289727E0,-5.440226E-1,-1.4909863E-1,-1.5473086E0,4.124733E0,1.4111098E0,8.371666E0,1.9311105E0,2.1685174E0,5.4748144E0,-2.1814828E0,5.2476066E-1,2.4384012E0,1.9975181E-1,-1.1425655E0,2.5966656E0,-1.738427E-1,-2.5139802E0,-1.3783345E0,3.5359988E0,2.2734802E0,-8.839628E-1,1.5090138E-1,-1.4479929E0,-1.2147449E0,-1.9493935E0,1.2961892E0,-3.9166805E-1,7.6947236E-1,-1.3739145E0,-2.1779795E0,7.664185E-1,-3.1520321E0,-8.038108E-1,1.2897767E0,-2.3698866E0],"split_indices":[3,3,2,2,3,2,3,0,1,2,1,0,0,3,2,0,0,2,0,0,3,0,2,0,3,2,0,1,0,0,3,2,3,2,3,2,3,0,0,1,2,1,3,0,0,0,1,0,1,1,0,3,2,3,3,0,2,1,3,2,0,1,0,0,0,0,0,0,0,0,0,0,0,0,0,0,0,0,0,0,0,0,0,0,0,0,0,0,0,0,0,0,0,0,0,0,0,0,0,0,0,0,0,0,0,0,0,0,0,0,0,0,0,0,0,0,0,0,0,0,0,0,0],"split_type":[0,0,0,0,0,0,0,0,0,0,0,0,0,0,0,0,0,0,0,0,0,0,0,0,0,0,0,0,0,0,0,0,0,0,0,0,0,0,0,0,0,0,0,0,0,0,0,0,0,0,0,0,0,0,0,0,0,0,0,0,0,0,0,0,0,0,0,0,0,0,0,0,0,0,0,0,0,0,0,0,0,0,0,0,0,0,0,0,0,0,0,0,0,0,0,0,0,0,0,0,0,0,0,0,0,0,0,0,0,0,0,0,0,0,0,0,0,0,0,0,0,0,0],"sum_hessian":[2.684E3,1.362E3,1.322E3,1.89E2,1.173E3,1.84E2,1.138E3,1.38E2,5.1E1,7.44E2,4.29E2,5.4E1,1.3E2,6.13E2,5.25E2,8.2E1,5.6E1,4.7E1,4E0,7.04E2,4E1,2.55E2,1.74E2,3.6E1,1.8E1,5.4E1,7.6E1,1.85E2,4.28E2,1.81E2,3.44E2,7.5E1,7E0,5.2E1,4E0,1.8E1,2.9E1,1E0,3E0,6.79E2,2.5E1,1.6E1,2.4E1,1.61E2,9.4E1,8.5E1,8.9E1,3.2E1,4E0,7E0,1.1E1,3.9E1,1.5E1,6.4E1,1.2E1,5.1E1,1.34E2,4.07E2,2.1E1,6.3E1,1.18E2,2.83E2,6.1E1,1.7E1,5.8E1,3E0,4E0,4.1E1,1.1E1,1E0,3E0,8E0,1E1,2.1E1,8E0,4.81E2,1.98E2,2.4E1,1E0,1E0,1.5E1,6E0,1.8E1,1.58E2,3E0,8.4E1,1E1,4.4E1,4.1E1,3.1E1,5.8E1,2.2E1,1E1,3E0,1E0,5E0,2E0,5E0,6E0,3.1E1,8E0,1.2E1,3E0,3.4E1,3E1,3E0,9E0,2.9E1,2.2E1,3.1E1,1.03E2,1.96E2,2.11E2,6E0,1.5E1,1.8E1,4.5E1,1.1E2,8E0,2.77E2,6E0,4E0,5.7E1],"tree_param":{"num_deleted":"0","num_feature":"4","num_nodes":"123","size_leaf_vector":"1"}},{"base_weights":[1.7299004E-2,3.4118824E0,-3.073088E0,-1.33979E0,4.404762E0,2.910892E0,-4.0852733E0,3.278931E-1,-5.5539093E0,6.245648E0,2.1964889E0,7.2113256E0,1.1113273E0,-2.7769208E0,-5.763938E0,-1.7871097E-1,7.2063217E0,-6.003753E0,8.650341E-1,3.7537947E0,7.650657E0,3.3023312E0,-1.64922E-1,9.747066E0,2.3883624E0,3.8711228E0,-1.3088962E0,-1.6332978E0,-4.1053205E0,-3.729774E0,-6.9125814E0,1.751782E0,-3.7449296E0,1.4328982E1,4.0313993E0,-3.4473941E0,-7.541222E0,4.063944E0,-1.7075841E0,4.934954E0,-6.064111E0,9.152106E0,5.5283303E0,4.9587574E0,7.926742E-1,1.1285029E1,-7.0173234E-1,8.217652E0,1.6789227E1,4.3727332E-1,4.379851E0,1.039492E1,2.4297774E0,-4.0642843E0,4.358198E0,-5.160037E-1,-3.3133574E0,-7.41494E0,-3.371041E0,-3.870284E0,3.4661477E0,-5.9930854E0,-8.352757E0,2.7182744E0,1.581947E-1,-1.4909512E0,1.5043321E0,1.320571E0,5.127471E0,-9.165058E-2,2.2686064E0,8.362282E-1,-1.2422693E0,-2.4991891E0,-6.6172254E-1,8.1290865E-1,2.4754648E0,-6.987843E-1,-2.489609E0,3.5714312E0,1.6534262E0,8.8375694E-1,3.1760893E0,-4.3761566E-1,1.8340255E0,2.8676745E-3,1.9408988E0,5.7775908E0,1.2731583E0,-2.2037463E0,1.5211597E-1,7.55714E-1,2.9622552E0,6.488041E0,1.4228156E0,1.0031507E0,-1.0460188E0,1.824433E0,5.2504544E0,-9.42001E-2,1.3304303E0,-2.1381366E-1,-2.336861E0,-1.4375693E0,2.3944476E0,9.1629726E-1,-6.2674844E-1,-2.0451362E0,-5.91772E-1,-1.3960218E0,-2.6816719E0,-6.6180843E-1,-1.6906613E0,-5.297977E-1,-1.4901667E0,-1.9641886E0,-4.4140214E-1,-1.4295244E-1,-2.683331E0],"categories":[],"categories_nodes":[],"categories_segments":[],"categories_sizes":[],"default_left":[0,0,0,0,0,0,0,0,0,0,0,0,0,0,0,0,0,0,0,0,0,0,0,0,0,0,0,0,0,0,0,0,0,0,0,0,0,0,0,0,0,0,0,0,0,0,0,0,0,0,0,0,0,0,0,0,0,0,0,0,0,0,0,0,0,0,0,0,0,0,0,0,0,0,0,0,0,0,0,0,0,0,0,0,0,0,0,0,0,0,0,0,0,0,0,0,0,0,0,0,0,0,0,0,0,0,0,0,0,0,0,0,0,0,0,0,0,0,0],"id":1,"left_children":[1,3,5,7,9,11,13,15,17,19,21,23,25,27,29,31,33,35,37,39,41,43,45,47,49,51,53,55,57,59,61,63,65,67,69,71,73,-1,-1,75,77,79,81,83,85,87,89,91,93,95,-1,97,99,101,103,105,107,109,111,113,-1,115,117,-1,-1,-1,-1,-1,-1,-1,-1,-1,-1,-1,-1,-1,-1,-1,-1,-1,-1,-1,-1,-1,-1,-1,-1,-1,-1,-1,-1,-1,-1,-1,-1,-1,-1,-1,-1,-1,-1,-1,-1,-1,-1,-1,-1,-1,-1,-1,-1,-1,-1,-1,-1,-1,-1,-1,-1],"loss_changes":[2.8177682E4,6.0447344E3,8.527889E3,1.5619961E3,4.2913066E3,1.5707231E3,2.626125E3,5.5883026E2,1.8710754E2,1.9914023E3,1.2618257E3,7.105071E2,9.735686E2,1.0233042E3,1.2032324E3,1.0392443E3,1.9098694E2,2.0589136E2,4.928658E2,2.4651943E3,1.1220605E3,1.3637429E3,9.6061914E2,2.820769E2,5.177666E2,6.1414984E2,1.2356863E3,6.853164E2,7.3565186E2,4.5703638E2,3.9356152E2,8.7230096E2,5.9358026E2,7.037842E0,1.4011783E2,1.1531531E2,1.3325256E2,0E0,0E0,1.3651333E3,1.7262329E2,2.0790059E3,1.9936992E3,1.4760996E3,5.8677527E2,3.112735E2,1.200385E3,2.960835E2,2.4708557E2,2.397662E2,0E0,2.6141516E2,3.1496362E2,6.5617725E2,9.002369E2,1.2476693E3,6.7242993E2,1.9407886E2,6.682156E2,4.3210913E2,0E0,5.1161377E2,5.9224414E2,0E0,0E0,0E0,0E0,0E0,0E0,0E0,0E0,0E0,0E0,0E0,0E0,0E0,0E0,0E0,0E0,0E0,0E0,0E0,0E0,0E0,0E0,0E0,0E0,0E0,0E0,0E0,0E0,0E0,0E0,0E0,0E0,0E0,0E0,0E0,0E0,0E0,0E0,0E0,0E0,0E0,0E0,0E0,0E0,0E0,0E0,0E0,0E0,0E0,0E0,0E0,0E0,0E0,0E0,0E0,0E0],"parents":[2147483647,0,0,1,1,2,2,3,3,4,4,5,5,6,6,7,7,8,8,9,9,10,10,11,11,12,12,13,13,14,14,15,15,16,16,17,17,18,18,19,19,20,20,21,21,22,22,23,23,24,24,25,25,26,26,27,27,28,28,29,29,30,30,31,31,32,32,33,33,34,34,35,35,36,36,39,39,40,40,41,41,42,42,43,43,44,44,45,45,46,46,47,47,48,48,49,49,51,51,52,52,53,53,54,54,55,55,56,56,57,57,58,58,59,59,61,61,62,62],"right_children":[2,4,6,8,10,12,14,16,18,20,22,24,26,28,30,32,34,36,38,40,42,44,46,48,50,52,54,56,58,60,62,64,66,68,70,72,74,-1,-1,76,78,80,82,84,86,88,90,92,94,96,-1,98,100,102,104,106,108,110,112,114,-1,116,118,-1,-1,-1,-1,-1,-1,-1,-1,-1,-1,-1,-1,-1,-1,-1,-1,-1,-1,-1,-1,-1,-1,-1,-1,-1,-1,-1,-1,-1,-1,-1,-1,-1,-1,-1,-1,-1,-1,-1,-1,-1,-1,-1,-1,-1,-1,-1,-1,-1,-1,-1,-1,-1,-1,-1,-1],"split_conditions":[2.1597514E2,5.0140324E1,1.3138765E1,1.9164717E1,1.6711998E2,1.0685391E1,2.7663486E2,1.8239416E1,1.85E1,9.602056E1,2.2E0,8.712333E0,4.662334E0,1.9829433E1,1.6766108E1,7.04775E0,1.8851917E1,2.1626984E1,3.2066667E-1,2.1322214E1,1.1812333E1,1.4078999E1,1.1304229E1,6.829E0,9.3E0,2.4112764E2,1.7314417E1,1.2176915E1,2.1096123E1,2.0395668E1,5.881083E0,1.0383987E1,1.8345877E1,1.8737333E1,2.0395668E1,2.4895403E0,1.4576915E1,4.063944E0,-1.7075841E0,1.1199834E1,2.3313995E1,1.6E0,1.8239416E1,7.144168E-1,2.1943583E1,4.033167E0,2.251917E0,2.620825E2,1E-1,2.779983E2,4.379851E0,1.6560835E0,2.8998322E2,1.1199834E1,1.2224107E1,2.3739697E2,1.4906082E1,2.3593677E2,1.1E0,-2.0849998E-1,3.4661477E0,4.324833E0,2.8024707E2,2.7182744E0,1.581947E-1,-1.4909512E0,1.5043321E0,1.320571E0,5.127471E0,-9.165058E-2,2.2686064E0,8.362282E-1,-1.2422693E0,-2.4991891E0,-6.6172254E-1,8.1290865E-1,2.4754648E0,-6.987843E-1,-2.489609E0,3.5714312E0,1.6534262E0,8.8375694E-1,3.1760893E0,-4.3761566E-1,1.8340255E0,2.8676745E-3,1.9408988E0,5.7775908E0,1.2731583E0,-2.2037463E0,1.5211597E-1,7.55714E-1,2.9622552E0,6.488041E0,1.4228156E0,1.0031507E0,-1.0460188E0,1.824433E0,5.2504544E0,-9.42001E-2,1.3304303E0,-2.1381366E-1,-2.336861E0,-1.4375693E0,2.3944476E0,9.1629726E-1,-6.2674844E-1,-2.0451362E0,-5.91772E-1,-1.3960218E0,-2.6816719E0,-6.6180843E-1,-1.6906613E0,-5.297977E-1,-1.4901667E0,-1.9641886E0,-4.4140214E-1,-1.4295244E-1,-2.683331E0],"split_indices":[3,3,2,2,3,2,3,0,1,3,1,0,0,2,2,0,0,2,0,2,0,0,2,0,1,3,0,0,2,0,0,2,2,0,0,3,0,0,0,0,2,1,0,0,0,0,0,3,1,3,0,0,3,0,2,3,0,3,1,0,0,0,3,0,0,0,0,0,0,0,0,0,0,0,0,0,0,0,0,0,0,0,0,0,0,0,0,0,0,0,0,0,0,0,0,0,0,0,0,0,0,0,0,0,0,0,0,0,0,0,0,0,0,0,0,0,0,0,0],"split_type":[0,0,0,0,0,0,0,0,0,0,0,0,0,0,0,0,0,0,0,0,0,0,0,0,0,0,0,0,0,0,0,0,0,0,0,0,0,0,0,0,0,0,0,0,0,0,0,0,0,0,0,0,0,0,0,0,0,0,0,0,0,0,0,0,0,0,0,0,0,0,0,0,0,0,0,0,0,0,0,0,0,0,0,0,0,0,0,0,0,0,0,0,0,0,0,0,0,0,0,0,0,0,0,0,0,0,0,0,0,0,0,0,0,0,0,0,0,0,0],"sum_hessian":[2.684E3,1.279E3,1.405E3,2.21E2,1.058E3,2.03E2,1.202E3,1.59E2,6.2E1,5.76E2,4.82E2,5.9E1,1.44E2,6.77E2,5.25E2,1.49E2,1E1,5.8E1,4E0,2.09E2,3.67E2,3.28E2,1.54E2,3.8E1,2.1E1,6.7E1,7.7E1,3.65E2,3.12E2,1.91E2,3.34E2,9.7E1,5.2E1,2E0,8E0,2.3E1,3.5E1,1E0,3E0,1.87E2,2.2E1,2.13E2,1.54E2,1.97E2,1.31E2,6E0,1.48E2,3.3E1,5E0,1.9E1,2E0,1.1E1,5.6E1,5.2E1,2.5E1,2.2E2,1.45E2,5.5E1,2.57E2,1.9E2,1E0,2.07E2,1.27E2,1.3E1,8.4E1,4.6E1,6E0,1E0,1E0,4E0,4E0,2E0,2.1E1,3E1,5E0,1.13E2,7.4E1,9E0,1.3E1,1.2E2,9.3E1,1.03E2,5.1E1,3E1,1.67E2,1.16E2,1.5E1,2E0,4E0,2.2E1,1.26E2,8E0,2.5E1,3E0,2E0,1.1E1,8E0,8E0,3E0,2.4E1,3.2E1,2.8E1,2.4E1,7E0,1.8E1,6.7E1,1.53E2,3.9E1,1.06E2,2.1E1,3.4E1,1.71E2,8.6E1,6.6E1,1.24E2,1.84E2,2.3E1,9E0,1.18E2],"tree_param":{"num_deleted":"0","num_feature":"4","num_nodes":"119","size_leaf_vector":"1"}},{"base_weights":[2.6317144E-2,2.7577367E0,-1.9331962E0,-7.394175E-1,3.7152321E0,1.7829212E0,-2.655087E0,3.5376275E0,-1.734365E0,4.5117445E0,2.3387008E0,3.39324E0,-7.0601267E-1,-6.8425125E-1,-3.5457928E0,5.6709814E0,2.0754683E-1,-2.5684297E0,1.941819E0,3.6046462E0,7.266319E0,-5.414886E0,2.6020365E0,2.9432805E0,1.6303368E1,-5.203259E0,2.5836077E0,1.8185092E0,-1.8049803E0,-3.092993E0,-5.5201325E0,9.077473E0,2.113524E0,2.8942137E0,-8.528538E-1,-1.200594E0,-6.0677266E0,-2.0254824E0,8.604205E0,3.0649397E0,9.29137E0,1.0933506E1,3.4938226E0,-6.5314956E0,-2.6009497E-1,-2.9530785E0,2.9091766E0,4.6425586E0,1.3853198E-1,6.676755E-1,5.7799253E0,-5.8972125E0,1.250232E0,1.0364536E0,4.1786065E0,5.328867E0,1.0194534E0,-2.2089753E0,5.074746E0,-3.1763756E0,6.0444613E0,-3.9890292E0,-6.8493156E0,3.3281302E0,3.7898856E-1,8.999423E-2,2.780311E0,-7.017989E-1,2.2077909E0,-6.182095E-1,8.488321E-1,-3.106829E-1,-2.1383288E0,-1.267985E0,6.338095E-1,3.5871058E0,5.332146E-2,1.0533166E0,-1.4568492E0,1.2916028E0,3.6805804E0,6.0843377E0,2.0927367E0,1.8376342E0,-3.9441377E-2,-2.0933588E0,-4.4408372E-1,1.7704096E-1,-2.940837E-1,3.1681743E0,-1.3373156E0,9.5454437E-1,-8.604668E-1,2.0222619E0,8.454403E-1,2.435573E0,-3.3478686E-1,2.48305E-1,-2.0068262E0,-1.7186681E0,1.328171E0,8.2222536E-2,4.095421E0,6.394048E-1,-1.3289186E0,-2.1600413E-1,-1.0021654E0,6.143632E-2,1.854849E0,-6.8062574E-1,-1.1709447E0,2.7162554E-3,2.5370443E0,-1.8225724E0,-4.9201703E-1,-2.353581E0,-1.159966E0],"categories":[],"categories_nodes":[],"categories_segments":[],"categories_sizes":[],"default_left":[0,0,0,0,0,0,0,0,0,0,0,0,0,0,0,0,0,0,0,0,0,0,0,0,0,0,0,0,0,0,0,0,0,0,0,0,0,0,0,0,0,0,0,0,0,0,0,0,0,0,0,0,0,0,0,0,0,0,0,0,0,0,0,0,0,0,0,0,0,0,0,0,0,0,0,0,0,0,0,0,0,0,0,0,0,0,0,0,0,0,0,0,0,0,0,0,0,0,0,0,0,0,0,0,0,0,0,0,0,0,0,0,0,0,0,0,0],"id":2,"left_children":[1,3,5,7,9,11,13,15,17,19,21,23,25,27,29,31,33,35,37,39,41,43,45,47,49,51,53,55,57,59,61,63,65,-1,67,69,71,73,75,77,79,81,83,85,87,89,91,93,95,-1,-1,97,99,101,-1,-1,103,105,107,109,111,113,115,-1,-1,-1,-1,-1,-1,-1,-1,-1,-1,-1,-1,-1,-1,-1,-1,-1,-1,-1,-1,-1,-1,-1,-1,-1,-1,-1,-1,-1,-1,-1,-1,-1,-1,-1,-1,-1,-1,-1,-1,-1,-1,-1,-1,-1,-1,-1,-1,-1,-1,-1,-1,-1,-1],"loss_changes":[1.4376131E4,3.7597744E3,4.200367E3,1.0359508E3,9.5539844E2,1.0244299E3,2.2971934E3,3.256181E2,6.090239E2,1.3655664E3,6.7767334E2,8.524147E2,1.5076606E3,1.1504932E3,7.8929785E2,3.201311E2,1.9841788E2,7.633358E2,9.954003E2,1.2636396E3,1.8571196E3,6.1615967E1,5.4604395E2,7.190299E2,1.6568677E2,1.9994519E2,1.02116626E3,1.5999287E3,7.9777313E2,5.7996045E2,3.12542E2,2.0656482E2,1.9183604E2,0E0,2.3694495E2,4.1138184E2,2.3265833E2,2.2753815E2,3.9340796E2,1.3810686E3,4.8158325E2,2.4111934E3,6.590938E2,9.963074E0,2.4154677E0,3.9274036E2,4.8009204E2,3.408556E2,5.896905E2,0E0,0E0,2.133097E2,1.3622673E2,5.0597888E2,0E0,0E0,7.486298E2,4.4914062E2,8.507501E1,4.726787E2,1.0184013E2,3.820725E2,2.3108691E2,0E0,0E0,0E0,0E0,0E0,0E0,0E0,0E0,0E0,0E0,0E0,0E0,0E0,0E0,0E0,0E0,0E0,0E0,0E0,0E0,0E0,0E0,0E0,0E0,0E0,0E0,0E0,0E0,0E0,0E0,0E0,0E0,0E0,0E0,0E0,0E0,0E0,0E0,0E0,0E0,0E0,0E0,0E0,0E0,0E0,0E0,0E0,0E0,0E0,0E0,0E0,0E0,0E0,0E0],"parents":[2147483647,0,0,1,1,2,2,3,3,4,4,5,5,6,6,7,7,8,8,9,9,10,10,11,11,12,12,13,13,14,14,15,15,16,16,17,17,18,18,19,19,20,20,21,21,22,22,23,23,24,24,25,25,26,26,27,27,28,28,29,29,30,30,31,31,32,32,34,34,35,35,36,36,37,37,38,38,39,39,40,40,41,41,42,42,43,43,44,44,45,45,46,46,47,47,48,48,51,51,52,52,53,53,56,56,57,57,58,58,59,59,60,60,61,61,62,62],"right_children":[2,4,6,8,10,12,14,16,18,20,22,24,26,28,30,32,34,36,38,40,42,44,46,48,50,52,54,56,58,60,62,64,66,-1,68,70,72,74,76,78,80,82,84,86,88,90,92,94,96,-1,-1,98,100,102,-1,-1,104,106,108,110,112,114,116,-1,-1,-1,-1,-1,-1,-1,-1,-1,-1,-1,-1,-1,-1,-1,-1,-1,-1,-1,-1,-1,-1,-1,-1,-1,-1,-1,-1,-1,-1,-1,-1,-1,-1,-1,-1,-1,-1,-1,-1,-1,-1,-1,-1,-1,-1,-1,-1,-1,-1,-1,-1,-1,-1],"split_conditions":[2.0276057E2,5.3965557E1,1.3441071E1,1.1609651E1,1.6711998E2,1.0301918E1,2.4345381E2,4.42275E0,1.4576915E1,1.4669485E2,1.6854002E2,9.745667E0,1.6012333E1,1E-1,2.427265E1,1.0383987E1,1E-1,5.8123336E0,4.3674377E1,1.9264418E1,8.712333E0,1.6114416E1,-4.4183335E-1,1.2287555E1,1.1966954E1,1.332E1,1.02E1,-1.6939168E0,1.8547752E1,2.0576914E1,2.6986023E2,9E-1,4E-1,2.8942137E0,5.0140324E1,3.2352498E0,7.908339E0,4E-1,5E-1,2.3313995E1,1.4118243E1,1E-1,1.6018169E2,2.378453E1,1E-1,1.6975261E2,1.1900001E1,-1.196E0,2.1756554E2,6.676755E-1,5.7799253E0,9.585739E0,1.1935249E1,2.2985252E1,4.1786065E0,5.328867E0,2.3832178E2,1.9022177E1,2.053707E2,2.8163626E2,2.589063E2,2.5771558E2,3.2778796E2,3.3281302E0,3.7898856E-1,8.999423E-2,2.780311E0,-7.017989E-1,2.2077909E0,-6.182095E-1,8.488321E-1,-3.106829E-1,-2.1383288E0,-1.267985E0,6.338095E-1,3.5871058E0,5.332146E-2,1.0533166E0,-1.4568492E0,1.2916028E0,3.6805804E0,6.0843377E0,2.0927367E0,1.8376342E0,-3.9441377E-2,-2.0933588E0,-4.4408372E-1,1.7704096E-1,-2.940837E-1,3.1681743E0,-1.3373156E0,9.5454437E-1,-8.604668E-1,2.0222619E0,8.454403E-1,2.435573E0,-3.3478686E-1,2.48305E-1,-2.0068262E0,-1.7186681E0,1.328171E0,8.2222536E-2,4.095421E0,6.394048E-1,-1.3289186E0,-2.1600413E-1,-1.0021654E0,6.143632E-2,1.854849E0,-6.8062574E-1,-1.1709447E0,2.7162554E-3,2.5370443E0,-1.8225724E0,-4.9201703E-1,-2.353581E0,-1.159966E0],"split_indices":[3,3,2,2,3,0,3,0,0,3,3,0,0,1,2,2,1,0,3,0,0,0,0,2,2,2,1,0,0,0,3,1,1,0,3,0,3,1,1,2,2,1,3,2,1,3,1,0,3,0,0,2,0,0,0,0,3,2,3,3,3,3,3,0,0,0,0,0,0,0,0,0,0,0,0,0,0,0,0,0,0,0,0,0,0,0,0,0,0,0,0,0,0,0,0,0,0,0,0,0,0,0,0,0,0,0,0,0,0,0,0,0,0,0,0,0,0],"split_type":[0,0,0,0,0,0,0,0,0,0,0,0,0,0,0,0,0,0,0,0,0,0,0,0,0,0,0,0,0,0,0,0,0,0,0,0,0,0,0,0,0,0,0,0,0,0,0,0,0,0,0,0,0,0,0,0,0,0,0,0,0,0,0,0,0,0,0,0,0,0,0,0,0,0,0,0,0,0,0,0,0,0,0,0,0,0,0,0,0,0,0,0,0,0,0,0,0,0,0,0,0,0,0,0,0,0,0,0,0,0,0,0,0,0,0,0,0],"sum_hessian":[2.684E3,1.121E3,1.563E3,2.41E2,8.8E2,2.54E2,1.309E3,4.5E1,1.96E2,5.56E2,3.24E2,1.54E2,1E2,4.08E2,9.01E2,2.7E1,1.8E1,1.6E2,3.6E1,4.2E2,1.36E2,1E1,3.14E2,1.5E2,4E0,4.2E1,5.8E1,1.26E2,2.82E2,7.35E2,1.66E2,1.3E1,1.4E1,1E0,1.7E1,1.16E2,4.4E1,2.3E1,1.3E1,3.85E2,3.5E1,6.8E1,6.8E1,8E0,2E0,1.6E1,2.98E2,9.3E1,5.7E1,1E0,3E0,3.8E1,4E0,5.2E1,6E0,5E0,1.21E2,2.67E2,1.5E1,7.29E2,6E0,7.9E1,8.7E1,1E1,3E0,1.2E1,2E0,1.5E1,2E0,9.6E1,2E1,8E0,3.6E1,1.5E1,8E0,9E0,4E0,3.65E2,2E1,1.4E1,2.1E1,1.9E1,4.9E1,3.9E1,2.9E1,7E0,1E0,1E0,1E0,1E0,1.5E1,2.85E2,1.3E1,4.2E1,5.1E1,7E0,5E1,4E0,3.4E1,1E0,3E0,5E1,2E0,1.01E2,2E1,1.16E2,1.51E2,3E0,1.2E1,3.26E2,4.03E2,2E0,4E0,4.1E1,3.8E1,6.4E1,2.3E1],"tree_param":{"num_deleted":"0","num_feature":"4","num_nodes":"117","size_leaf_vector":"1"}},{"base_weights":[3.458609E-2,2.0503042E0,-1.3001002E0,-4.689744E-1,2.7832537E0,2.6072475E-1,-2.2796113E0,6.036964E-1,-3.592917E0,2.535864E0,7.24633E0,1.917702E0,-4.8014864E-1,-1.6171186E0,-3.4400027E0,-3.9606857E0,9.8046815E-1,-1.0436845E0,-4.384296E0,2.967021E0,-6.360038E-1,1.7964305E0,1.1485983E1,1.1308073E1,1.3969333E0,2.4763424E0,-1.1798875E0,-5.6852236E0,-1.4056478E0,-2.758551E0,-5.1841917E0,-1.3569312E0,-7.206203E0,3.6216273E0,4.033801E-1,-3.3531811E0,6.7733157E-1,-4.9079695E0,1.2137095E-2,3.5814917E0,8.9768076E-1,-6.6933765E0,2.3690662E-1,1.0816219E1,-3.8923957E0,1.879749E1,3.8533628E0,1.6577688E1,5.0320487E0,9.1447884E-1,8.901492E0,1.4124858E0,1.0101248E1,-1.3367505E0,8.036379E0,-6.7776484E0,3.383057E0,8.4353983E-1,-1.7806935E0,-1.7415918E0,-4.11713E0,2.3394418E0,-5.5220456E0,4.8203415E-1,-7.2997385E-1,-4.9245217E-1,-2.3972523E0,1.9295582E0,2.2820464E-1,2.488953E-1,-2.3260179E0,-1.5996764E0,-4.4853023E-1,7.58088E-1,-2.9307425E-1,-2.2195523E0,-1.1695421E0,3.5470839E0,-1.4144642E0,6.524403E-1,1.6293944E0,4.6129137E-2,4.008561E0,-7.8423935E-1,-2.770103E0,1.4515514E0,-8.063683E-1,-1.2879746E0,4.970475E0,-1.8739375E0,8.897577E-1,1.0590191E0,5.9593563E0,-1.6009324E0,2.5591974E0,5.6187816E0,1.195704E0,1.9652276E0,-3.842248E-1,2.0445403E-1,2.5957222E0,4.0903254E0,-2.4793332E0,9.156731E-1,-9.502417E-1,1.2901416E0,4.512579E0,-2.2306845E-1,-8.537076E-1,1.292101E-1,2.8414125E0,-1.8973494E-1,-2.332649E0,3.2775419E0,-8.3180505E-1,-8.201838E-1,1.5346303E0,-5.528937E-1,2.857784E0,-6.750096E-1,3.276215E0,1.7639233E0,-1.3637387E0,9.2385894E-1,-9.31366E-2,-7.623155E-1,-1.9778914E0],"categories":[],"categories_nodes":[],"categories_segments":[],"categories_sizes":[],"default_left":[0,0,0,0,0,0,0,0,0,0,0,0,0,0,0,0,0,0,0,0,0,0,0,0,0,0,0,0,0,0,0,0,0,0,0,0,0,0,0,0,0,0,0,0,0,0,0,0,0,0,0,0,0,0,0,0,0,0,0,0,0,0,0,0,0,0,0,0,0,0,0,0,0,0,0,0,0,0,0,0,0,0,0,0,0,0,0,0,0,0,0,0,0,0,0,0,0,0,0,0,0,0,0,0,0,0,0,0,0,0,0,0,0,0,0,0,0,0,0,0,0,0,0,0,0,0,0],"id":3,"left_children":[1,3,5,7,9,11,13,15,17,19,21,23,25,27,29,31,33,35,37,39,41,43,45,47,49,51,53,55,57,59,61,63,65,67,69,71,73,75,77,79,81,83,85,87,89,91,93,95,97,99,101,103,105,107,109,111,113,115,117,119,121,123,125,-1,-1,-1,-1,-1,-1,-1,-1,-1,-1,-1,-1,-1,-1,-1,-1,-1,-1,-1,-1,-1,-1,-1,-1,-1,-1,-1,-1,-1,-1,-1,-1,-1,-1,-1,-1,-1,-1,-1,-1,-1,-1,-1,-1,-1,-1,-1,-1,-1,-1,-1,-1,-1,-1,-1,-1,-1,-1,-1,-1,-1,-1,-1,-1],"loss_changes":[7.226259E3,1.977064E3,2.471209E3,8.1310187E2,8.969385E2,7.6694965E2,7.5780664E2,3.1515448E2,1.2050348E2,1.078167E3,9.7291016E2,9.280139E2,8.966312E2,5.3742944E2,4.135879E2,1.0852911E2,2.5460161E2,6.586611E1,1.0826752E2,8.7796875E2,5.0390237E2,1.0683413E3,1.2669094E3,2.4730249E2,6.5805176E2,6.5901215E2,5.167343E2,3.3002808E2,5.1100513E2,3.5343213E2,2.6710742E2,3.261867E1,1.3080597E1,2.3630505E2,4.897349E2,1.7768684E1,3.306602E1,7.675305E1,3.907452E2,1.3777241E3,1.4815168E3,1.00211975E2,1.143541E3,7.664126E2,2.2840796E2,1.2536719E2,6.0430786E2,6.081482E1,6.591373E1,3.077678E2,1.00637646E3,5.654095E2,2.219104E2,3.0668933E2,6.1405396E1,1.6677759E2,2.1600037E2,1.3435751E3,3.8235132E2,9.967138E2,5.0239844E2,1.0761839E1,2.8971948E2,0E0,0E0,0E0,0E0,0E0,0E0,0E0,0E0,0E0,0E0,0E0,0E0,0E0,0E0,0E0,0E0,0E0,0E0,0E0,0E0,0E0,0E0,0E0,0E0,0E0,0E0,0E0,0E0,0E0,0E0,0E0,0E0,0E0,0E0,0E0,0E0,0E0,0E0,0E0,0E0,0E0,0E0,0E0,0E0,0E0,0E0,0E0,0E0,0E0,0E0,0E0,0E0,0E0,0E0,0E0,0E0,0E0,0E0,0E0,0E0,0E0,0E0,0E0,0E0],"parents":[2147483647,0,0,1,1,2,2,3,3,4,4,5,5,6,6,7,7,8,8,9,9,10,10,11,11,12,12,13,13,14,14,15,15,16,16,17,17,18,18,19,19,20,20,21,21,22,22,23,23,24,24,25,25,26,26,27,27,28,28,29,29,30,30,31,31,32,32,33,33,34,34,35,35,36,36,37,37,38,38,39,39,40,40,41,41,42,42,43,43,44,44,45,45,46,46,47,47,48,48,49,49,50,50,51,51,52,52,53,53,54,54,55,55,56,56,57,57,58,58,59,59,60,60,61,61,62,62],"right_children":[2,4,6,8,10,12,14,16,18,20,22,24,26,28,30,32,34,36,38,40,42,44,46,48,50,52,54,56,58,60,62,64,66,68,70,72,74,76,78,80,82,84,86,88,90,92,94,96,98,100,102,104,106,108,110,112,114,116,118,120,122,124,126,-1,-1,-1,-1,-1,-1,-1,-1,-1,-1,-1,-1,-1,-1,-1,-1,-1,-1,-1,-1,-1,-1,-1,-1,-1,-1,-1,-1,-1,-1,-1,-1,-1,-1,-1,-1,-1,-1,-1,-1,-1,-1,-1,-1,-1,-1,-1,-1,-1,-1,-1,-1,-1,-1,-1,-1,-1,-1,-1,-1,-1,-1,-1,-1],"split_conditions":[1.9862555E2,5.3965557E1,1.6293728E1,1.945333E1,1.9401874E2,2.4039288E2,2.7663486E2,6.035911E0,-1.5543333E0,1.8422476E2,1.6293728E1,-2.221E0,1.191812E1,1.6746773E1,8.000001E-1,1.5281989E1,1.0587918E1,-4.5626664E0,1.85E1,3.8E0,1.2852501E0,9.745667E0,8.000001E-1,1.191812E1,1.5978486E1,9.000001E-1,2.1389418E1,1.8547752E1,1.776081E1,4.84775E0,-3.9418328E0,1.1525623E1,-1.2772498E0,4.42275E0,5.2076275E1,7.908339E0,-3.3293333E0,1.0012365E1,3.2066667E-1,1.5226764E1,1.9120665E1,1.4113652E1,9.483167E0,-4.4183335E-1,1.977469E2,-2.221E0,2.59775E0,2.3510204E2,-3.3293333E0,2.3837336E1,1E-1,9.483167E0,9.585739E0,1.2472749E1,1.2496719E1,2.5399998E-1,1.9001915E1,1.7309975E1,1.3599999E1,4.4915E0,2.7922925E2,-4.1085E0,1.8455048E1,4.8203415E-1,-7.2997385E-1,-4.9245217E-1,-2.3972523E0,1.9295582E0,2.2820464E-1,2.488953E-1,-2.3260179E0,-1.5996764E0,-4.4853023E-1,7.58088E-1,-2.9307425E-1,-2.2195523E0,-1.1695421E0,3.5470839E0,-1.4144642E0,6.524403E-1,1.6293944E0,4.6129137E-2,4.008561E0,-7.8423935E-1,-2.770103E0,1.4515514E0,-8.063683E-1,-1.2879746E0,4.970475E0,-1.8739375E0,8.897577E-1,1.0590191E0,5.9593563E0,-1.6009324E0,2.5591974E0,5.6187816E0,1.195704E0,1.9652276E0,-3.842248E-1,2.0445403E-1,2.5957222E0,4.0903254E0,-2.4793332E0,9.156731E-1,-9.502417E-1,1.2901416E0,4.512579E0,-2.2306845E-1,-8.537076E-1,1.292101E-1,2.8414125E0,-1.8973494E-1,-2.332649E0,3.2775419E0,-8.3180505E-1,-8.201838E-1,1.5346303E0,-5.528937E-1,2.857784E0,-6.750096E-1,3.276215E0,1.7639233E0,-1.3637387E0,9.2385894E-1,-9.31366E-2,-7.623155E-1,-1.9778914E0],"split_indices":[3,3,2,2,3,3,3,3,0,3,2,0,2,2,1,2,2,0,1,1,0,0,1,2,2,1,0,0,2,0,0,2,0,0,3,3,0,3,0,2,0,2,0,0,3,0,0,3,0,0,1,0,2,0,2,0,0,2,1,0,3,0,2,0,0,0,0,0,0,0,0,0,0,0,0,0,0,0,0,0,0,0,0,0,0,0,0,0,0,0,0,0,0,0,0,0,0,0,0,0,0,0,0,0,0,0,0,0,0,0,0,0,0,0,0,0,0,0,0,0,0,0,0,0,0,0,0],"split_type":[0,0,0,0,0,0,0,0,0,0,0,0,0,0,0,0,0,0,0,0,0,0,0,0,0,0,0,0,0,0,0,0,0,0,0,0,0,0,0,0,0,0,0,0,0,0,0,0,0,0,0,0,0,0,0,0,0,0,0,0,0,0,0,0,0,0,0,0,0,0,0,0,0,0,0,0,0,0,0,0,0,0,0,0,0,0,0,0,0,0,0,0,0,0,0,0,0,0,0,0,0,0,0,0,0,0,0,0,0,0,0,0,0,0,0,0,0,0,0,0,0,0,0,0,0,0,0],"sum_hessian":[2.684E3,1.069E3,1.615E3,2.41E2,8.28E2,6.23E2,9.92E2,1.8E2,6.1E1,7.86E2,4.2E1,1.92E2,4.31E2,6.33E2,3.59E2,1.3E1,1.67E2,1.5E1,4.6E1,6.92E2,9.4E1,1.9E1,2.3E1,9E0,1.83E2,8.2E1,3.49E2,3E1,6.03E2,2.6E2,9.9E1,8E0,5E0,2.9E1,1.38E2,6E0,9E0,4.1E1,5E0,5.33E2,1.59E2,1.1E1,8.3E1,7E0,1.2E1,1.1E1,1.2E1,4E0,5E0,1.73E2,1E1,7.3E1,9E0,3.44E2,5E0,2.7E1,3E0,8.6E1,5.17E2,1.5E2,1.1E2,4E0,9.5E1,2E0,6E0,1E0,4E0,1.4E1,1.5E1,1.32E2,6E0,2E0,4E0,4E0,5E0,1E1,3.1E1,1E0,4E0,3.04E2,2.29E2,1.51E2,8E0,5E0,6E0,3.2E1,5.1E1,2E0,5E0,9E0,3E0,1E0,1E1,4E0,8E0,3E0,1E0,4E0,1E0,1.69E2,4E0,8E0,2E0,5.4E1,1.9E1,5E0,4E0,2.48E2,9.6E1,1E0,4E0,4E0,2.3E1,1E0,2E0,4.7E1,3.9E1,5.15E2,2E0,1.45E2,5E0,4E0,1.06E2,3E0,1E0,2.6E1,6.9E1],"tree_param":{"num_deleted":"0","num_feature":"4","num_nodes":"127","size_leaf_vector":"1"}},{"base_weights":[3.6392517E-2,9.789022E-1,-1.3848863E0,1.4590454E0,-1.3621175E-1,8.905422E-1,-1.8455683E0,1.3600394E0,6.618031E0,-2.8160596E0,5.7228744E-1,1.6993495E0,-2.097919E0,-2.0313675E0,5.077E-1,2.1786783E0,5.622496E-1,4.9881864E0,3.6893473E0,-1.8711197E0,-5.6516294E0,3.1391932E1,1.6739082E-1,2.9416146E0,-9.8415804E-1,-2.8109672E0,2.218695E0,-1.5676397E0,-3.118337E0,2.1779592E0,-3.1751394E0,2.57987E0,-4.358619E0,2.8370982E-1,4.756115E0,1.0371805E1,2.1197329E0,-1.3535804E0,-1.8691179E0,-7.0562E0,2.1001866E0,3.8134627E0,1.18825035E1,-2.8235366E0,9.194628E-1,-3.2075055E0,3.6768274E0,-1.9034377E0,6.934623E0,1.13256045E-1,-4.3996406E0,-2.7457387E0,-7.0650643E-1,6.5694404E0,-3.387904E0,2.9717927E0,-4.9258323E0,-3.8311164E0,-3.0978966E-1,6.797181E-1,2.5239348E0,-1.6181586E0,1.2709632E0,9.61532E-3,1.4884535E0,-5.977034E-1,2.0488348E0,1.2855568E0,3.7031448E0,-3.9823863E-1,2.3702211E0,7.165591E-2,-8.228306E-1,-3.5806268E-1,-2.7165494E0,-2.8700058E0,-5.0229305E-1,1.9506432E0,1.1335472E-1,-2.797252E0,7.552993E-2,4.1631403E0,7.4499977E-1,-7.1489465E-1,9.7439337E-1,9.0380085E-1,2.5635107E0,-1.6542645E0,6.447939E-1,-1.4806111E0,-1.4614521E-1,-2.0270746E0,-7.077477E-1,1.9097683E0,-3.1672078E-1,-9.7552186E-1,4.4244785E0,-6.6024E-1,-1.4603461E0,6.086436E-1,2.4874625E0,1.404339E-1,-1.9174042E0,-4.963275E-1,-1.5568074E0,-2.4728872E-1,9.2393875E-2],"categories":[],"categories_nodes":[],"categories_segments":[],"categories_sizes":[],"default_left":[0,0,0,0,0,0,0,0,0,0,0,0,0,0,0,0,0,0,0,0,0,0,0,0,0,0,0,0,0,0,0,0,0,0,0,0,0,0,0,0,0,0,0,0,0,0,0,0,0,0,0,0,0,0,0,0,0,0,0,0,0,0,0,0,0,0,0,0,0,0,0,0,0,0,0,0,0,0,0,0,0,0,0,0,0,0,0,0,0,0,0,0,0,0,0,0,0,0,0,0,0,0,0,0,0,0,0],"id":4,"left_children":[1,3,5,7,9,11,13,15,17,19,21,23,25,27,29,31,33,35,-1,37,39,41,43,45,47,49,-1,51,53,55,57,59,61,63,65,67,69,71,-1,73,-1,-1,-1,75,77,79,81,83,85,87,89,91,93,95,97,99,101,103,105,-1,-1,-1,-1,-1,-1,-1,-1,-1,-1,-1,-1,-1,-1,-1,-1,-1,-1,-1,-1,-1,-1,-1,-1,-1,-1,-1,-1,-1,-1,-1,-1,-1,-1,-1,-1,-1,-1,-1,-1,-1,-1,-1,-1,-1,-1,-1,-1],"loss_changes":[3.5980986E3,8.648927E2,1.1243181E3,5.676599E2,9.2626385E2,4.410582E2,3.9060815E2,7.230652E2,1.3305695E2,2.6272827E2,4.8115503E3,4.796038E2,2.8479443E2,4.1146338E2,4.129009E2,1.4458662E3,6.563237E2,2.5598242E2,0E0,1.6754208E2,4.9367224E2,2.639458E2,8.6186414E2,4.548427E2,3.4806003E2,1.7238678E2,0E0,5.8748474E2,6.64687E2,2.7404294E2,3.8284836E1,9.264944E2,3.0758984E2,6.225849E2,5.0332E2,1.9121643E1,2.6955515E2,1.5772061E2,0E0,2.587351E2,0E0,0E0,0E0,5.806866E2,9.227821E2,2.3509888E2,1.0368518E3,1.11493805E2,5.8364563E0,1.7226167E2,4.7900604E1,3.6396606E2,8.39074E2,6.102371E2,4.109226E2,1.938677E2,4.2516396E1,4.1674652E1,1.8430963E0,0E0,0E0,0E0,0E0,0E0,0E0,0E0,0E0,0E0,0E0,0E0,0E0,0E0,0E0,0E0,0E0,0E0,0E0,0E0,0E0,0E0,0E0,0E0,0E0,0E0,0E0,0E0,0E0,0E0,0E0,0E0,0E0,0E0,0E0,0E0,0E0,0E0,0E0,0E0,0E0,0E0,0E0,0E0,0E0,0E0,0E0,0E0,0E0],"parents":[2147483647,0,0,1,1,2,2,3,3,4,4,5,5,6,6,7,7,8,8,9,9,10,10,11,11,12,12,13,13,14,14,15,15,16,16,17,17,19,19,20,20,21,21,22,22,23,23,24,24,25,25,27,27,28,28,29,29,30,30,31,31,32,32,33,33,34,34,35,35,36,36,37,37,39,39,43,43,44,44,45,45,46,46,47,47,48,48,49,49,50,50,51,51,52,52,53,53,54,54,55,55,56,56,57,57,58,58],"right_children":[2,4,6,8,10,12,14,16,18,20,22,24,26,28,30,32,34,36,-1,38,40,42,44,46,48,50,-1,52,54,56,58,60,62,64,66,68,70,72,-1,74,-1,-1,-1,76,78,80,82,84,86,88,90,92,94,96,98,100,102,104,106,-1,-1,-1,-1,-1,-1,-1,-1,-1,-1,-1,-1,-1,-1,-1,-1,-1,-1,-1,-1,-1,-1,-1,-1,-1,-1,-1,-1,-1,-1,-1,-1,-1,-1,-1,-1,-1,-1,-1,-1,-1,-1,-1,-1,-1,-1,-1,-1],"split_conditions":[2.4345381E2,1.9201874E1,1.3679999E1,2.2985252E1,9.3682205E1,3.3217596E2,3.4538843E2,8.818584E0,1.5745627E1,6.9392525E1,1.04132835E2,1.1199834E1,1.8678999E1,3.033629E2,2.0188908E1,6.1000004E0,1.8678415E1,1.2979984E1,3.6893473E0,2.819285E1,1.6504E1,6.6477494E0,2.0355923E1,2.5130882E2,9.3E0,-4.4183335E-1,2.218695E0,4.581084E0,1.3849476E1,2.7999995E0,1.38081665E1,8.143583E0,7.251917E0,8.500001E0,1.2472749E1,1.1525623E1,4E-1,2.5227501E0,-1.8691179E0,-7.6474994E-1,2.1001866E0,3.8134627E0,1.18825035E1,1.2852501E0,2.0945072E1,1.1525623E1,2.5964426E2,1.332E1,1.3599999E1,-6.7480817E0,1.6012333E1,-5.671E0,4.912333E0,1.3755579E1,4.42275E0,1.5601914E1,1.4759999E1,1E-1,1.4576915E1,6.797181E-1,2.5239348E0,-1.6181586E0,1.2709632E0,9.61532E-3,1.4884535E0,-5.977034E-1,2.0488348E0,1.2855568E0,3.7031448E0,-3.9823863E-1,2.3702211E0,7.165591E-2,-8.228306E-1,-3.5806268E-1,-2.7165494E0,-2.8700058E0,-5.0229305E-1,1.9506432E0,1.1335472E-1,-2.797252E0,7.552993E-2,4.1631403E0,7.4499977E-1,-7.1489465E-1,9.7439337E-1,9.0380085E-1,2.5635107E0,-1.6542645E0,6.447939E-1,-1.4806111E0,-1.4614521E-1,-2.0270746E0,-7.077477E-1,1.9097683E0,-3.1672078E-1,-9.7552186E-1,4.4244785E0,-6.6024E-1,-1.4603461E0,6.086436E-1,2.4874625E0,1.404339E-1,-1.9174042E0,-4.963275E-1,-1.5568074E0,-2.4728872E-1,9.2393875E-2],"split_indices":[3,2,2,0,3,3,3,0,2,3,3,0,0,3,2,1,2,2,0,2,0,0,2,3,1,0,0,0,2,1,0,0,0,1,0,2,1,0,0,0,0,0,0,0,2,2,3,2,1,0,0,0,0,2,0,0,2,1,0,0,0,0,0,0,0,0,0,0,0,0,0,0,0,0,0,0,0,0,0,0,0,0,0,0,0,0,0,0,0,0,0,0,0,0,0,0,0,0,0,0,0,0,0,0,0,0,0],"split_type":[0,0,0,0,0,0,0,0,0,0,0,0,0,0,0,0,0,0,0,0,0,0,0,0,0,0,0,0,0,0,0,0,0,0,0,0,0,0,0,0,0,0,0,0,0,0,0,0,0,0,0,0,0,0,0,0,0,0,0,0,0,0,0,0,0,0,0,0,0,0,0,0,0,0,0,0,0,0,0,0,0,0,0,0,0,0,0,0,0,0,0,0,0,0,0,0,0,0,0,0,0,0,0,0,0,0,0],"sum_hessian":[2.684E3,1.614E3,1.07E3,1.128E3,4.86E2,1.8E2,8.9E2,1.108E3,2E1,1.01E2,3.85E2,1.42E2,3.8E1,8.25E2,6.5E1,5.46E2,5.62E2,1.7E1,3E0,7.7E1,2.4E1,4E0,3.81E2,9.7E1,4.5E1,3.6E1,2E0,5.8E2,2.45E2,4.5E1,2E1,5.15E2,3.1E1,5.28E2,3.4E1,5E0,1.2E1,7E1,7E0,2.2E1,2E0,2E0,2E0,7.6E1,3.05E2,1E1,8.7E1,4.1E1,4E0,1.3E1,2.3E1,2.44E2,3.36E2,6E0,2.39E2,4.1E1,4E0,1.6E1,4E0,4.9E2,2.5E1,2.8E1,3E0,5.02E2,2.6E1,8E0,2.6E1,2E0,3E0,8E0,4E0,3.3E1,3.7E1,6E0,1.6E1,1E1,6.6E1,2.6E1,2.79E2,3E0,7E0,8E0,7.9E1,3.8E1,3E0,2E0,2E0,3E0,1E1,2E1,3E0,2E1,2.24E2,1.5E1,3.21E2,3E0,3E0,1.34E2,1.05E2,3.6E1,5E0,1E0,3E0,7E0,9E0,2E0,2E0],"tree_param":{"num_deleted":"0","num_feature":"4","num_nodes":"107","size_leaf_vector":"1"}},{"base_weights":[3.740851E-2,1.1788162E0,-7.183735E-1,-7.508735E-1,1.6820109E0,1.5969901E-1,-1.2694297E0,-1.0034578E0,4.1853766E0,1.4941992E0,5.167641E0,9.31486E-1,-7.210022E-1,-9.192934E0,-1.228088E0,-1.9838583E-1,-2.2773721E0,6.808055E0,-2.1063247E0,1.8252915E0,-4.9381906E-1,7.728098E0,3.6386466E-1,2.7113194E0,-1.6498905E-1,-1.6644073E0,3.0328581E0,-3.8039196E0,7.1313834E-1,-9.32162E-1,-2.1683428E0,-9.164247E-1,7.7180767E0,-4.12279E0,-7.4350613E-1,3.315727E0,3.5511954E0,4.564908E-1,-1.1468571E0,8.982456E0,1.6534452E0,-5.3537736E0,5.744399E-1,-2.5588272E0,9.549203E0,-4.3940406E0,4.5526843E0,1.8732877E0,9.916115E0,3.051263E0,-8.3719885E-1,-1.8761277E0,6.6936593E0,1.0908058E0,5.1440306E0,-1.0723293E0,3.7803297E0,-5.4888964E0,-1.7840159E0,-1.8343033E-1,-2.9053597E0,3.300156E0,-1.4105837E0,-5.551534E-1,-1.7885103E0,2.3005354E0,-3.9004526E-1,-1.9677687E-2,2.1569543E0,3.894452E0,4.6136953E-2,-1.6759604E0,5.410816E-1,-9.7297914E-2,-2.2031794E0,5.374217E0,-5.3258058E-2,-1.4011416E0,8.831629E-1,3.8791614E0,7.430761E-1,-2.573951E-1,-1.4329867E0,2.48566E0,6.907527E-1,-3.2568282E-1,9.231908E-1,4.0098724E0,5.167994E-1,-3.0008456E-1,2.0186927E0,1.6396843E-1,-5.662969E-1,-4.9077906E-2,-8.772614E-1,5.9554214E0,-1.4544195E0,-4.2747173E-1,9.379895E-1,1.6702698E0,-9.4371533E-1,-3.4565067E-1,1.8921465E0,-5.634155E-1,2.5956457E0,-2.148264E0,-3.7494615E-1,3.2014638E-1,-7.3482436E-1],"categories":[],"categories_nodes":[],"categories_segments":[],"categories_sizes":[],"default_left":[0,0,0,0,0,0,0,0,0,0,0,0,0,0,0,0,0,0,0,0,0,0,0,0,0,0,0,0,0,0,0,0,0,0,0,0,0,0,0,0,0,0,0,0,0,0,0,0,0,0,0,0,0,0,0,0,0,0,0,0,0,0,0,0,0,0,0,0,0,0,0,0,0,0,0,0,0,0,0,0,0,0,0,0,0,0,0,0,0,0,0,0,0,0,0,0,0,0,0,0,0,0,0,0,0,0,0,0,0],"id":5,"left_children":[1,3,5,7,9,11,13,15,17,19,21,23,25,27,29,31,33,35,37,39,41,43,45,47,49,51,53,-1,-1,55,57,59,61,63,65,-1,67,-1,-1,69,71,73,75,77,79,81,83,85,87,89,91,93,95,97,99,101,103,105,107,-1,-1,-1,-1,-1,-1,-1,-1,-1,-1,-1,-1,-1,-1,-1,-1,-1,-1,-1,-1,-1,-1,-1,-1,-1,-1,-1,-1,-1,-1,-1,-1,-1,-1,-1,-1,-1,-1,-1,-1,-1,-1,-1,-1,-1,-1,-1,-1,-1,-1],"loss_changes":[2.3170767E3,1.0402433E3,7.8213226E2,2.8099374E2,5.480698E2,4.24813E2,3.1398853E2,2.1697386E2,1.9585219E2,5.320829E2,5.2608215E2,6.5031116E2,1.0391398E3,2.3185367E2,2.731637E2,7.5172E2,2.2904578E2,7.133713E1,3.072704E1,8.362612E2,6.053115E2,5.48975E2,3.3888483E2,7.482309E2,4.500877E2,4.2663837E2,2.362893E2,0E0,0E0,5.0209894E2,2.9138586E2,3.1765527E2,5.0017206E2,1.4357294E2,2.253638E2,0E0,7.943299E1,0E0,0E0,5.6290405E2,7.460802E2,2.0781537E2,1.2549064E3,7.1848076E1,5.419021E2,6.7243958E0,5.6518555E1,4.1303467E2,3.4446423E2,5.4314594E2,2.5104765E2,4.1054645E2,1.0074192E3,1.6834476E2,1.1582208E2,4.3913214E2,6.2271497E2,1.6115405E2,4.0671002E2,0E0,0E0,0E0,0E0,0E0,0E0,0E0,0E0,0E0,0E0,0E0,0E0,0E0,0E0,0E0,0E0,0E0,0E0,0E0,0E0,0E0,0E0,0E0,0E0,0E0,0E0,0E0,0E0,0E0,0E0,0E0,0E0,0E0,0E0,0E0,0E0,0E0,0E0,0E0,0E0,0E0,0E0,0E0,0E0,0E0,0E0,0E0,0E0,0E0,0E0],"parents":[2147483647,0,0,1,1,2,2,3,3,4,4,5,5,6,6,7,7,8,8,9,9,10,10,11,11,12,12,13,13,14,14,15,15,16,16,17,17,18,18,19,19,20,20,21,21,22,22,23,23,24,24,25,25,26,26,29,29,30,30,31,31,32,32,33,33,34,34,36,36,39,39,40,40,41,41,42,42,43,43,44,44,45,45,46,46,47,47,48,48,49,49,50,50,51,51,52,52,53,53,54,54,55,55,56,56,57,57,58,58],"right_children":[2,4,6,8,10,12,14,16,18,20,22,24,26,28,30,32,34,36,38,40,42,44,46,48,50,52,54,-1,-1,56,58,60,62,64,66,-1,68,-1,-1,70,72,74,76,78,80,82,84,86,88,90,92,94,96,98,100,102,104,106,108,-1,-1,-1,-1,-1,-1,-1,-1,-1,-1,-1,-1,-1,-1,-1,-1,-1,-1,-1,-1,-1,-1,-1,-1,-1,-1,-1,-1,-1,-1,-1,-1,-1,-1,-1,-1,-1,-1,-1,-1,-1,-1,-1,-1,-1,-1,-1,-1,-1,-1],"split_conditions":[1.9862555E2,5.0140324E1,1.6293728E1,1.8678999E1,1.9401874E2,1E-1,1.9931773E2,4.795667E0,1.7072504E1,1.8236713E2,1.4078999E1,2.5712653E2,1.7097748E1,3.1999998E0,2.440046E1,4.033167E0,1.1812333E1,1.8851917E1,3.705662E1,8.287822E0,2.251917E0,-4.4183335E-1,1.5182015E1,1.5815435E1,-4.8751664E0,1.612583E1,2.2E0,-3.8039196E0,7.1313834E-1,2.3993399E1,2.196283E2,3.656084E0,2.063023E1,1E-1,1.2737334E1,3.315727E0,2.0395668E1,4.564908E-1,-1.1468571E0,1.5543583E1,9.19939E0,1.3779114E1,2.3248336E0,1.8947083E1,1.9995398E1,1.2313894E1,1.5929002E1,2.1465715E2,1.47415E1,3.1116153E2,2.8736508E2,4.2165E0,2.94709E2,1.9001915E1,1.5856354E1,1.3900002E1,4.987333E0,2.8835976E1,2.3949127E2,-1.8343033E-1,-2.9053597E0,3.300156E0,-1.4105837E0,-5.551534E-1,-1.7885103E0,2.3005354E0,-3.9004526E-1,-1.9677687E-2,2.1569543E0,3.894452E0,4.6136953E-2,-1.6759604E0,5.410816E-1,-9.7297914E-2,-2.2031794E0,5.374217E0,-5.3258058E-2,-1.4011416E0,8.831629E-1,3.8791614E0,7.430761E-1,-2.573951E-1,-1.4329867E0,2.48566E0,6.907527E-1,-3.2568282E-1,9.231908E-1,4.0098724E0,5.167994E-1,-3.0008456E-1,2.0186927E0,1.6396843E-1,-5.662969E-1,-4.9077906E-2,-8.772614E-1,5.9554214E0,-1.4544195E0,-4.2747173E-1,9.379895E-1,1.6702698E0,-9.4371533E-1,-3.4565067E-1,1.8921465E0,-5.634155E-1,2.5956457E0,-2.148264E0,-3.7494615E-1,3.2014638E-1,-7.3482436E-1],"split_indices":[3,3,2,0,3,1,3,0,2,3,0,3,0,1,2,0,0,0,3,2,0,0,2,2,0,2,1,0,0,2,3,0,2,1,0,0,0,0,0,0,2,2,0,2,2,2,0,3,0,3,3,0,3,0,2,1,0,2,3,0,0,0,0,0,0,0,0,0,0,0,0,0,0,0,0,0,0,0,0,0,0,0,0,0,0,0,0,0,0,0,0,0,0,0,0,0,0,0,0,0,0,0,0,0,0,0,0,0,0],"split_type":[0,0,0,0,0,0,0,0,0,0,0,0,0,0,0,0,0,0,0,0,0,0,0,0,0,0,0,0,0,0,0,0,0,0,0,0,0,0,0,0,0,0,0,0,0,0,0,0,0,0,0,0,0,0,0,0,0,0,0,0,0,0,0,0,0,0,0,0,0,0,0,0,0,0,0,0,0,0,0,0,0,0,0,0,0,0,0,0,0,0,0,0,0,0,0,0,0,0,0,0,0,0,0,0,0,0,0,0,0],"sum_hessian":[2.684E3,1.069E3,1.615E3,2.21E2,8.48E2,6.23E2,9.92E2,2.11E2,1E1,8.06E2,4.2E1,3.32E2,2.91E2,4E0,9.88E2,1.3E2,8.1E1,7E0,3E0,6.91E2,1.15E2,2.7E1,1.5E1,1.26E2,2.06E2,2.33E2,5.8E1,3E0,1E0,7.53E2,2.35E2,1.2E2,1E1,3.6E1,4.5E1,2E0,5E0,1E0,2E0,1.5E1,6.76E2,2E1,9.5E1,4E0,2.3E1,7E0,8E0,1.14E2,1.2E1,3.5E1,1.71E2,2.28E2,5E0,3.1E1,2.7E1,7.32E2,2.1E1,2.3E1,2.12E2,1.17E2,3E0,8E0,2E0,1.7E1,1.9E1,2E0,4.3E1,3E0,2E0,1E1,5E0,1.3E1,6.63E2,6E0,1.4E1,3E0,9.2E1,3E0,1E0,1.5E1,8E0,1E0,6E0,2E0,6E0,3.3E1,8.1E1,8E0,4E0,1.7E1,1.8E1,7.4E1,9.7E1,8.7E1,1.41E2,2E0,3E0,1.4E1,1.7E1,2.6E1,1E0,7.25E2,7E0,1E1,1.1E1,1.6E1,7E0,4E1,1.72E2],"tree_param":{"num_deleted":"0","num_feature":"4","num_nodes":"109","size_leaf_vector":"1"}},{"base_weights":[3.488213E-2,8.0380505E-1,-5.4434234E-1,-1.8979008E-1,1.3291484E0,7.2458315E-1,-7.899951E-1,-3.9301643E-1,5.052554E0,1.0695927E1,1.189063E0,-3.7737448E0,9.483451E-1,-4.5679373E-1,-1.8672682E0,1.0410091E-1,-2.678383E0,5.683955E0,-5.6805956E-1,1.7596712E1,-5.7796245E0,-3.987109E0,1.3447075E0,-2.4421399E0,-2.086354E0,2.5504475E0,3.444084E-1,-7.891661E-2,-1.3991885E0,-2.1644285E0,3.5983195E0,-4.4517508E-1,2.4255617E0,1.1372967E0,-7.6766768E0,2.8763769E0,2.6843991E0,6.7055774E0,1.0054023E1,-1.9766282E0,-5.0283253E-1,-9.938883E0,8.9787954E-1,4.139882E0,9.713723E-1,-2.794748E0,6.4337885E-1,-1.8963653E0,3.0348074E0,-3.950689E0,1.1951852E0,-1.6542211E-1,1.2013035E1,-2.2413318E0,2.732322E-1,-2.3342056E0,1.6065651E0,6.257319E0,8.349514E-1,2.4635365E0,-1.6346548E-1,1.7471735E0,-1.1590527E0,1.0899879E0,-1.1272938E0,-3.020139E0,-5.6671774E-1,1.4927297E0,6.0513955E-2,8.5039276E-1,2.8894897E0,-1.2338952E0,-3.5544386E0,1.5075371E0,-6.9293654E-1,9.535051E-1,4.8810983E0,-1.2226229E0,3.7048835E-1,-1.2390137E0,-2.701504E-1,1.589823E0,-1.1936688E0,8.2118645E-2,1.0778121E0,3.9328434E-2,-1.9357187E0,5.7110345E-1,-5.993814E-1,1.3026366E-1,-3.6459336E-1,5.1468983E0,-1.28402E0,-3.8884702E-1,-1.0551188E0,-9.5995814E-1,3.380042E-1,-8.2057095E-1,-3.5446233E-1,1.8170336E0,-5.795747E-1,4.2983305E-1,2.2880113E0,8.435181E-1,-7.0168495E-1],"categories":[],"categories_nodes":[],"categories_segments":[],"categories_sizes":[],"default_left":[0,0,0,0,0,0,0,0,0,0,0,0,0,0,0,0,0,0,0,0,0,0,0,0,0,0,0,0,0,0,0,0,0,0,0,0,0,0,0,0,0,0,0,0,0,0,0,0,0,0,0,0,0,0,0,0,0,0,0,0,0,0,0,0,0,0,0,0,0,0,0,0,0,0,0,0,0,0,0,0,0,0,0,0,0,0,0,0,0,0,0,0,0,0,0,0,0,0,0,0,0,0,0,0,0],"id":6,"left_children":[1,3,5,7,9,11,13,15,17,19,21,23,25,27,29,31,33,35,-1,37,39,41,43,-1,45,47,49,51,53,55,57,59,61,63,65,67,-1,69,-1,-1,-1,71,73,75,77,79,-1,81,83,85,87,89,91,93,95,97,99,101,103,-1,-1,-1,-1,-1,-1,-1,-1,-1,-1,-1,-1,-1,-1,-1,-1,-1,-1,-1,-1,-1,-1,-1,-1,-1,-1,-1,-1,-1,-1,-1,-1,-1,-1,-1,-1,-1,-1,-1,-1,-1,-1,-1,-1,-1,-1],"loss_changes":[1.1962802E3,6.026156E2,4.7811984E2,4.281387E2,9.7795483E2,2.5421097E2,4.6003748E2,4.388116E2,7.6549255E1,1.352339E3,6.055659E2,7.143646E1,2.294029E2,3.4958905E2,4.9990735E2,4.065688E2,1.3246909E3,1.0255893E2,0E0,1.1620801E3,2.237732E0,6.485596E2,7.514995E2,0E0,3.596541E1,1.4575586E2,6.4054724E2,7.362935E2,3.9637775E2,1.8813586E2,1.1234015E2,2.2717604E2,1.326221E3,5.0236298E2,3.9603345E2,4.9532745E1,0E0,4.0657166E1,0E0,0E0,0E0,6.249951E1,1.8371175E2,9.3971106E2,8.564095E2,1.9045326E1,0E0,1.2598376E2,8.990039E1,2.969772E2,3.3409998E2,4.399532E2,4.9243115E2,2.2092389E2,2.851952E2,1.2435034E2,2.1641212E2,4.1925842E1,6.3043293E1,0E0,0E0,0E0,0E0,0E0,0E0,0E0,0E0,0E0,0E0,0E0,0E0,0E0,0E0,0E0,0E0,0E0,0E0,0E0,0E0,0E0,0E0,0E0,0E0,0E0,0E0,0E0,0E0,0E0,0E0,0E0,0E0,0E0,0E0,0E0,0E0,0E0,0E0,0E0,0E0,0E0,0E0,0E0,0E0,0E0,0E0],"parents":[2147483647,0,0,1,1,2,2,3,3,4,4,5,5,6,6,7,7,8,8,9,9,10,10,11,11,12,12,13,13,14,14,15,15,16,16,17,17,19,19,20,20,21,21,22,22,24,24,25,25,26,26,27,27,28,28,29,29,30,30,31,31,32,32,33,33,34,34,35,35,37,37,41,41,42,42,43,43,44,44,45,45,47,47,48,48,49,49,50,50,51,51,52,52,53,53,54,54,55,55,56,56,57,57,58,58],"right_children":[2,4,6,8,10,12,14,16,18,20,22,24,26,28,30,32,34,36,-1,38,40,42,44,-1,46,48,50,52,54,56,58,60,62,64,66,68,-1,70,-1,-1,-1,72,74,76,78,80,-1,82,84,86,88,90,92,94,96,98,100,102,104,-1,-1,-1,-1,-1,-1,-1,-1,-1,-1,-1,-1,-1,-1,-1,-1,-1,-1,-1,-1,-1,-1,-1,-1,-1,-1,-1,-1,-1,-1,-1,-1,-1,-1,-1,-1,-1,-1,-1,-1,-1,-1,-1,-1,-1,-1],"split_conditions":[2.053707E2,8.80845E1,1.3441071E1,2.0179003E1,8.9873795E1,2.1064362E2,1.5E0,7.247434E1,8.648759E1,4.7999997E0,9.602056E1,9.826088E0,1.0685391E1,1.1464417E1,1.778525E1,5.8885357E1,8.818584E0,7.247434E1,-5.6805956E-1,1.2387348E1,1.5373335E0,6.4810843E0,1.1656499E2,-2.4421399E0,2.0179003E1,2.1756554E2,1.1440978E1,1.1343582E1,1.7097748E1,1.3900002E1,3.9999998E0,7.2E0,6E-1,1.8792551E1,1.1E0,1.5745627E1,2.6843991E0,1E-1,1.0054023E1,-1.9766282E0,-5.0283253E-1,1.0805998E1,9.3682205E1,2.1566973E1,1.2276044E2,1.1609651E1,6.4337885E-1,8.759178E0,-4.5626664E0,5.998335E-1,3.2778796E2,2.9277896E2,8E-1,2.6302246E2,1.503835E1,2.93658E2,1.5500001E1,2.2E0,2.674281E2,2.4635365E0,-1.6346548E-1,1.7471735E0,-1.1590527E0,1.0899879E0,-1.1272938E0,-3.020139E0,-5.6671774E-1,1.4927297E0,6.0513955E-2,8.5039276E-1,2.8894897E0,-1.2338952E0,-3.5544386E0,1.5075371E0,-6.9293654E-1,9.535051E-1,4.8810983E0,-1.2226229E0,3.7048835E-1,-1.2390137E0,-2.701504E-1,1.589823E0,-1.1936688E0,8.2118645E-2,1.0778121E0,3.9328434E-2,-1.9357187E0,5.7110345E-1,-5.993814E-1,1.3026366E-1,-3.6459336E-1,5.1468983E0,-1.28402E0,-3.8884702E-1,-1.0551188E0,-9.5995814E-1,3.380042E-1,-8.2057095E-1,-3.5446233E-1,1.8170336E0,-5.795747E-1,4.2983305E-1,2.2880113E0,8.435181E-1,-7.0168495E-1],"split_indices":[3,3,2,0,3,3,1,3,3,1,3,2,2,0,0,3,0,3,0,2,0,0,3,0,0,3,2,0,0,1,1,2,1,2,1,2,0,1,0,0,0,2,3,2,3,2,0,2,0,0,3,3,1,3,2,3,1,1,3,0,0,0,0,0,0,0,0,0,0,0,0,0,0,0,0,0,0,0,0,0,0,0,0,0,0,0,0,0,0,0,0,0,0,0,0,0,0,0,0,0,0,0,0,0,0],"split_type":[0,0,0,0,0,0,0,0,0,0,0,0,0,0,0,0,0,0,0,0,0,0,0,0,0,0,0,0,0,0,0,0,0,0,0,0,0,0,0,0,0,0,0,0,0,0,0,0,0,0,0,0,0,0,0,0,0,0,0,0,0,0,0,0,0,0,0,0,0,0,0,0,0,0,0,0,0,0,0,0,0,0,0,0,0,0,0,0,0,0,0,0,0,0,0,0,0,0,0,0,0,0,0,0,0],"sum_hessian":[2.684E3,1.153E3,1.531E3,3.99E2,7.54E2,2.48E2,1.283E3,3.85E2,1.4E1,1E1,7.44E2,1.1E1,2.37E2,9.81E2,3.02E2,3.17E2,6.8E1,1.3E1,1E0,7E0,3E0,2.1E1,7.23E2,2E0,9E0,6.4E1,1.73E2,7.01E2,2.8E2,2.87E2,1.5E1,2.57E2,6E1,3.9E1,2.9E1,8E0,5E0,5E0,2E0,2E0,1E0,9E0,1.2E1,8.4E1,6.39E2,8E0,1E0,6E0,5.8E1,2.8E1,1.45E2,6.97E2,4E0,1.86E2,9.4E1,2.75E2,1.2E1,7E0,8E0,2E0,2.55E2,3.9E1,2.1E1,2.6E1,1.3E1,2E1,9E0,4E0,4E0,3E0,2E0,3E0,6E0,5E0,7E0,7.9E1,5E0,3.1E1,6.08E2,4E0,4E0,1E0,5E0,1E1,4.8E1,1.1E1,1.7E1,1.19E2,2.6E1,4.44E2,2.53E2,3E0,1E0,1.08E2,7.8E1,1.8E1,7.6E1,2.03E2,7.2E1,5E0,7E0,2E0,5E0,5E0,3E0],"tree_param":{"num_deleted":"0","num_feature":"4","num_nodes":"105","size_leaf_vector":"1"}},{"base_weights":[3.0400585E-2,6.220378E-1,-3.6135823E-1,-3.5982928E-1,9.841063E-1,2.1845956E-1,-6.749666E-1,1.6102949E-1,-5.6347094E0,-7.087389E-2,1.8982558E0,4.2497864E0,1.01425774E-1,-4.0979776E0,-6.0105485E-1,-1.6524372E-1,2.1410099E1,5.2951306E-1,-7.1275964E0,1.2363104E1,-2.0845017E-1,7.9159703E0,1.1710681E0,4.9212427E0,-8.7330955E-1,-5.3524575E0,1.913038E-1,-5.7397885E0,2.4015917E-1,-7.349602E0,-5.67516E-1,1.1507486E0,-1.2761862E0,8.556729E0,1.0965729E-2,-1.6258272E0,4.858837E0,-2.298911E0,-8.808648E-1,6.231715E0,-1.92971E0,7.6967344E0,-3.8650957E-1,-1.9035978E0,1.1964657E1,-6.4595413E-1,2.6973267E0,-5.367694E-1,1.8991431E0,-6.3617687E0,-1.213246E0,6.7140925E-1,-5.3193426E-1,-6.5650554E0,2.4719238E-2,2.1956704E0,-9.297238E-1,-3.031398E0,5.5059415E-1,1.64702E0,-6.498746E-1,6.732192E-2,3.0928671E0,-2.397352E0,-2.2851138E-1,2.5045282E-1,2.5396233E0,3.7419717E0,7.008551E-1,-4.5898864E-1,2.538397E-1,1.0032141E0,-2.2886894E0,5.9420342E0,5.2694E-1,-6.434842E-2,-3.7641747E0,1.6807984E0,-2.8604114E-2,-4.8617348E-1,4.0719855E-1,-2.1759095E0,-8.267224E-1,-2.0467758E-2,-5.2549297E-1,1.5721013E-1,3.7433462E0,-5.383188E-1,3.2734078E-1,-2.0419464E0,-5.139655E-1,2.3404314E-1,-2.2291948E-1,7.7778685E-1,9.117909E-2,2.1482162E0,1.6851951E-1,-1.3634661E-1,-4.4864962E-1],"categories":[],"categories_nodes":[],"categories_segments":[],"categories_sizes":[],"default_left":[0,0,0,0,0,0,0,0,0,0,0,0,0,0,0,0,0,0,0,0,0,0,0,0,0,0,0,0,0,0,0,0,0,0,0,0,0,0,0,0,0,0,0,0,0,0,0,0,0,0,0,0,0,0,0,0,0,0,0,0,0,0,0,0,0,0,0,0,0,0,0,0,0,0,0,0,0,0,0,0,0,0,0,0,0,0,0,0,0,0,0,0,0,0,0,0,0,0,0],"id":7,"left_children":[1,3,5,7,9,11,13,15,17,19,21,23,25,27,29,31,33,35,37,39,41,43,45,47,-1,49,51,53,55,57,59,61,63,-1,-1,-1,65,-1,-1,-1,-1,67,69,71,73,75,77,79,-1,81,83,85,87,89,91,93,-1,-1,-1,95,97,-1,-1,-1,-1,-1,-1,-1,-1,-1,-1,-1,-1,-1,-1,-1,-1,-1,-1,-1,-1,-1,-1,-1,-1,-1,-1,-1,-1,-1,-1,-1,-1,-1,-1,-1,-1,-1,-1],"loss_changes":[6.2255164E2,3.8074246E2,2.9399393E2,7.949254E2,7.543029E2,2.6755215E2,2.629344E2,1.8338503E3,2.4303882E2,6.252429E2,1.8242772E3,9.1256744E1,2.7209586E2,1.5807132E2,2.28505E2,3.830484E2,6.070205E2,1.8086133E2,2.462854E1,7.6584094E2,5.1111566E2,1.811812E3,1.0417095E3,1.1877225E2,0E0,2.9881378E1,1.895978E2,7.627838E1,5.2513977E1,1.4507007E2,1.8783377E2,1.01578925E3,4.844858E2,0E0,0E0,0E0,5.098403E1,0E0,0E0,0E0,0E0,1.7569781E2,5.00246E2,4.4613724E2,2.526934E3,8.805158E2,1.655719E3,1.04110155E1,0E0,2.5099182E0,1.7299194E0,5.6417346E2,4.4865387E2,4.7384644E0,2.3197062E0,2.9666786E0,0E0,0E0,0E0,2.1738393E2,1.625607E2,0E0,0E0,0E0,0E0,0E0,0E0,0E0,0E0,0E0,0E0,0E0,0E0,0E0,0E0,0E0,0E0,0E0,0E0,0E0,0E0,0E0,0E0,0E0,0E0,0E0,0E0,0E0,0E0,0E0,0E0,0E0,0E0,0E0,0E0,0E0,0E0,0E0,0E0],"parents":[2147483647,0,0,1,1,2,2,3,3,4,4,5,5,6,6,7,7,8,8,9,9,10,10,11,11,12,12,13,13,14,14,15,15,16,16,17,17,18,18,19,19,20,20,21,21,22,22,23,23,25,25,26,26,27,27,28,28,29,29,30,30,31,31,32,32,36,36,41,41,42,42,43,43,44,44,45,45,46,46,47,47,49,49,50,50,51,51,52,52,53,53,54,54,55,55,59,59,60,60],"right_children":[2,4,6,8,10,12,14,16,18,20,22,24,26,28,30,32,34,36,38,40,42,44,46,48,-1,50,52,54,56,58,60,62,64,-1,-1,-1,66,-1,-1,-1,-1,68,70,72,74,76,78,80,-1,82,84,86,88,90,92,94,-1,-1,-1,96,98,-1,-1,-1,-1,-1,-1,-1,-1,-1,-1,-1,-1,-1,-1,-1,-1,-1,-1,-1,-1,-1,-1,-1,-1,-1,-1,-1,-1,-1,-1,-1,-1,-1,-1,-1,-1,-1,-1],"split_conditions":[1.9862555E2,2.251917E0,1.5876775E1,1.8165002E0,1.5281989E1,-8.495997E0,-5.671E0,1.73525E0,1E-1,2.3248336E0,1.6039202E1,3.3217596E2,-7.212666E0,3.033629E2,1.9931773E2,1.5315873E1,1E-1,2.0227501E0,8E0,1E-1,7.771331E0,6.5523315E1,1.4249365E2,2.7451938E2,-8.7330955E-1,1.4332341E1,1.0301918E1,7E-1,3.2339435E2,3.1999998E0,-3.175167E0,2.4999998E0,1.5815435E1,8.556729E0,1.0965729E-2,-1.6258272E0,2.16025E0,-2.298911E0,-8.808648E-1,6.231715E0,-1.92971E0,1.5543583E1,1.4397751E1,5.2076275E1,1.3740263E2,1.3997609E2,1.7000003E0,-9.808499E0,1.8991431E0,1E-1,1.4578888E1,1.0149833E1,1.7097748E1,3.0229745E2,2.1E0,3.222718E2,-9.297238E-1,-3.031398E0,5.5059415E-1,2.546523E2,2.5338476E1,6.732192E-2,3.0928671E0,-2.397352E0,-2.2851138E-1,2.5045282E-1,2.5396233E0,3.7419717E0,7.008551E-1,-4.5898864E-1,2.538397E-1,1.0032141E0,-2.2886894E0,5.9420342E0,5.2694E-1,-6.434842E-2,-3.7641747E0,1.6807984E0,-2.8604114E-2,-4.8617348E-1,4.0719855E-1,-2.1759095E0,-8.267224E-1,-2.0467758E-2,-5.2549297E-1,1.5721013E-1,3.7433462E0,-5.383188E-1,3.2734078E-1,-2.0419464E0,-5.139655E-1,2.3404314E-1,-2.2291948E-1,7.7778685E-1,9.117909E-2,2.1482162E0,1.6851951E-1,-1.3634661E-1,-4.4864962E-1],"split_indices":[3,0,2,0,2,0,0,0,1,0,2,3,0,3,3,2,1,0,1,1,2,3,3,3,0,2,0,1,3,1,0,1,2,0,0,0,0,0,0,0,0,0,0,3,3,3,1,0,0,1,2,0,0,3,1,3,0,0,0,3,2,0,0,0,0,0,0,0,0,0,0,0,0,0,0,0,0,0,0,0,0,0,0,0,0,0,0,0,0,0,0,0,0,0,0,0,0,0,0],"split_type":[0,0,0,0,0,0,0,0,0,0,0,0,0,0,0,0,0,0,0,0,0,0,0,0,0,0,0,0,0,0,0,0,0,0,0,0,0,0,0,0,0,0,0,0,0,0,0,0,0,0,0,0,0,0,0,0,0,0,0,0,0,0,0,0,0,0,0,0,0,0,0,0,0,0,0,0,0,0,0,0,0,0,0,0,0,0,0,0,0,0,0,0,0,0,0,0,0,0,0],"sum_hessian":[2.684E3,1.069E3,1.615E3,2.88E2,7.81E2,5.67E2,1.048E3,2.63E2,2.5E1,3.63E2,4.18E2,1.5E1,5.52E2,2.1E1,1.027E3,2.6E2,3E0,5E0,2E1,3E0,3.6E2,4.4E1,3.74E2,1.4E1,1E0,8E0,5.44E2,1.5E1,6E0,4E0,1.023E3,1.19E2,1.41E2,2E0,1E0,2E0,3E0,1.7E1,3E0,2E0,1E0,7E0,3.53E2,1.3E1,3.1E1,1.71E2,2.03E2,3E0,1.1E1,6E0,2E0,3.27E2,2.17E2,1.3E1,2E0,4E0,2E0,3E0,1E0,3.6E1,9.87E2,1.09E2,1E1,9E0,1.32E2,2E0,1E0,3E0,4E0,1.83E2,1.7E2,7E0,6E0,1.7E1,1.4E1,1.66E2,5E0,9.9E1,1.04E2,2E0,1E0,4E0,2E0,1E0,1E0,3.24E2,3E0,1.22E2,9.5E1,1.2E1,1E0,1E0,1E0,3E0,1E0,5E0,3.1E1,8.03E2,1.84E2],"tree_param":{"num_deleted":"0","num_feature":"4","num_nodes":"99","size_leaf_vector":"1"}},{"base_weights":[2.7376112E-2,6.129173E-1,-2.201288E-1,2.4434222E-1,3.0167818E0,-5.7389264E0,-1.8768635E-1,-8.5719414E-2,2.9250495E0,6.255989E0,1.2918472E-2,-1.9371837E0,-1.6708946E0,5.3829613E0,-2.2339074E-1,1.1919687E-1,-3.6089637E0,1.7054048E0,6.760271E0,3.2047527E0,6.6767373E0,-1.4869903E0,4.6188583E0,-1.23635106E-1,-6.282675E-1,-5.18967E-1,9.672763E0,1.5934266E-1,-5.1302105E-1,4.631E-1,-2.5022886E0,-2.2945523E0,-6.534096E0,5.9824357E0,6.0061765E-1,-3.2785912E0,9.862702E0,8.6394005E0,1.1314033E0,7.734334E-1,-4.1251493E0,1.1816345E1,-4.266678E0,-3.6484118E0,3.826615E0,4.3807106E0,4.780446E0,9.680674E-2,1.0145727E1,-6.6764945E-1,3.5640852E0,8.864829E-2,2.6843762E0,3.3239157E0,-9.8988235E-1,-2.3568703E-1,-9.2826706E-1,-2.0851974E0,-4.1775542E-1,3.2477152E0,-1.995394E-1,-2.101852E0,3.7902895E-1,1.2592797E0,-2.8985753E0,4.0252557E0,2.3415963E-1,9.160935E-1,5.7142506E0,-1.8587254E0,1.0027192E0,-1.092482E0,1.8966789E0,-1.9670911E0,3.9834E-1,5.172903E0,6.2367886E-1,-2.7806695E0,1.6477746E0,-4.991909E-1,-1.4402608E0,1.5419896E0,1.7998725E-1,-8.260363E-1,2.2056856E0,-1.3479612E0,6.784334E-2,7.44032E-2,3.767446E0,7.4574184E-1,-2.404709E-1,4.7418556E-1,1.8949591E0],"categories":[],"categories_nodes":[],"categories_segments":[],"categories_sizes":[],"default_left":[0,0,0,0,0,0,0,0,0,0,0,0,0,0,0,0,0,0,0,0,0,0,0,0,0,0,0,0,0,0,0,0,0,0,0,0,0,0,0,0,0,0,0,0,0,0,0,0,0,0,0,0,0,0,0,0,0,0,0,0,0,0,0,0,0,0,0,0,0,0,0,0,0,0,0,0,0,0,0,0,0,0,0,0,0,0,0,0,0,0,0,0,0],"id":8,"left_children":[1,3,5,7,9,11,13,15,17,19,21,-1,23,25,27,29,31,33,35,37,-1,39,41,-1,-1,43,45,47,49,51,53,55,57,59,61,63,65,67,69,71,73,75,77,79,81,-1,83,85,87,89,91,-1,-1,-1,-1,-1,-1,-1,-1,-1,-1,-1,-1,-1,-1,-1,-1,-1,-1,-1,-1,-1,-1,-1,-1,-1,-1,-1,-1,-1,-1,-1,-1,-1,-1,-1,-1,-1,-1,-1,-1,-1,-1],"loss_changes":[3.8925677E2,7.0629456E2,3.3695657E2,6.134162E2,1.0313136E3,2.1355652E1,3.747302E2,4.4660773E2,3.4396918E2,2.4184536E3,3.9374365E2,0E0,7.3556995E-1,3.0883707E2,2.0704091E2,5.28558E2,1.1573129E2,2.7519415E2,5.929436E2,4.8601395E2,0E0,2.5961487E2,9.45766E2,0E0,0E0,9.555662E1,9.9014465E1,5.017464E2,6.7253357E2,7.340061E2,7.729439E2,2.7735275E1,1.1738922E1,3.93553E2,2.5086168E2,2.7917166E2,4.415232E2,6.394809E2,5.5531824E2,6.109825E2,2.739183E2,3.8688647E2,3.9263593E2,1.1594391E0,9.6294365E0,0E0,1.1712408E2,4.7653897E2,1.1627307E2,4.3486176E2,2.0293195E2,0E0,0E0,0E0,0E0,0E0,0E0,0E0,0E0,0E0,0E0,0E0,0E0,0E0,0E0,0E0,0E0,0E0,0E0,0E0,0E0,0E0,0E0,0E0,0E0,0E0,0E0,0E0,0E0,0E0,0E0,0E0,0E0,0E0,0E0,0E0,0E0,0E0,0E0,0E0,0E0,0E0,0E0],"parents":[2147483647,0,0,1,1,2,2,3,3,4,4,5,5,6,6,7,7,8,8,9,9,10,10,12,12,13,13,14,14,15,15,16,16,17,17,18,18,19,19,21,21,22,22,25,25,26,26,27,27,28,28,29,29,30,30,31,31,32,32,33,33,34,34,35,35,36,36,37,37,38,38,39,39,40,40,41,41,42,42,43,43,44,44,46,46,47,47,48,48,49,49,50,50],"right_children":[2,4,6,8,10,12,14,16,18,20,22,-1,24,26,28,30,32,34,36,38,-1,40,42,-1,-1,44,46,48,50,52,54,56,58,60,62,64,66,68,70,72,74,76,78,80,82,-1,84,86,88,90,92,-1,-1,-1,-1,-1,-1,-1,-1,-1,-1,-1,-1,-1,-1,-1,-1,-1,-1,-1,-1,-1,-1,-1,-1,-1,-1,-1,-1,-1,-1,-1,-1,-1,-1,-1,-1,-1,-1,-1,-1,-1,-1],"split_conditions":[1.6711998E2,1.5229355E2,1.6854002E2,1.7964415E1,7.4352508E0,1.6114416E1,1.6975261E2,2.378453E1,1.35999E2,5.660251E0,1.8947083E1,-1.9371837E0,1E-1,1.3009903E1,1E-1,1.3740263E2,8.104932E1,1.1609651E1,1.2496719E1,1.2224107E1,6.6767373E0,1.7239416E1,3.8E0,-1.23635106E-1,-6.282675E-1,1E-1,9E-1,3.1655441E1,1.95665E1,1.35999E2,8.287822E0,4.2691675E-1,2.7322077E1,1E-1,1.2245293E1,9.676569E0,3.7000003E0,1.4000001E0,1.5696165E1,1.3945666E1,2.1033167E1,1.6018169E2,5.799999E0,1.5156081E1,1.3595665E1,4.3807106E0,2.8560832E0,1.7653183E2,2.4953201E2,1.1304229E1,1.5E0,8.864829E-2,2.6843762E0,3.3239157E0,-9.8988235E-1,-2.3568703E-1,-9.2826706E-1,-2.0851974E0,-4.1775542E-1,3.2477152E0,-1.995394E-1,-2.101852E0,3.7902895E-1,1.2592797E0,-2.8985753E0,4.0252557E0,2.3415963E-1,9.160935E-1,5.7142506E0,-1.8587254E0,1.0027192E0,-1.092482E0,1.8966789E0,-1.9670911E0,3.9834E-1,5.172903E0,6.2367886E-1,-2.7806695E0,1.6477746E0,-4.991909E-1,-1.4402608E0,1.5419896E0,1.7998725E-1,-8.260363E-1,2.2056856E0,-1.3479612E0,6.784334E-2,7.44032E-2,3.767446E0,7.4574184E-1,-2.404709E-1,4.7418556E-1,1.8949591E0],"split_indices":[3,3,3,0,0,0,3,2,3,0,2,0,1,2,1,3,3,2,2,2,0,0,1,0,0,1,1,2,0,3,2,0,2,1,2,2,1,1,2,0,0,3,1,0,0,0,0,3,3,2,1,0,0,0,0,0,0,0,0,0,0,0,0,0,0,0,0,0,0,0,0,0,0,0,0,0,0,0,0,0,0,0,0,0,0,0,0,0,0,0,0,0,0],"split_type":[0,0,0,0,0,0,0,0,0,0,0,0,0,0,0,0,0,0,0,0,0,0,0,0,0,0,0,0,0,0,0,0,0,0,0,0,0,0,0,0,0,0,0,0,0,0,0,0,0,0,0,0,0,0,0,0,0,0,0,0,0,0,0,0,0,0,0,0,0,0,0,0,0,0,0,0,0,0,0,0,0,0,0,0,0,0,0,0,0,0,0,0,0],"sum_hessian":[2.684E3,7.97E2,1.887E3,6.92E2,1.05E2,1E1,1.877E3,6.17E2,7.5E1,5E1,5.5E1,8E0,2E0,1.1E1,1.866E3,5.84E2,3.3E1,5.8E1,1.7E1,4.3E1,7E0,4.2E1,1.3E1,1E0,1E0,5E0,6E0,8.04E2,1.062E3,5.17E2,6.7E1,2.4E1,9E0,1.1E1,4.7E1,4E0,1.3E1,1.1E1,3.2E1,2.3E1,1.9E1,7E0,6E0,3E0,2E0,2E0,4E0,8E2,4E0,1.024E3,3.8E1,5.08E2,9E0,3E0,6.4E1,9E0,1.5E1,8E0,1E0,6E0,5E0,3E0,4.4E1,2E0,2E0,9E0,4E0,8E0,3E0,7E0,2.5E1,1.3E1,1E1,1.3E1,6E0,4E0,3E0,4E0,2E0,2E0,1E0,1E0,1E0,1E0,3E0,2.1E1,7.79E2,1E0,3E0,4.1E1,9.83E2,2.3E1,1.5E1],"tree_param":{"num_deleted":"0","num_feature":"4","num_nodes":"93","size_leaf_vector":"1"}},{"base_weights":[3.0346168E-2,2.9447097E-1,-3.6796558E-1,3.5788387E-1,-2.5783947E0,-4.8129666E-1,9.3566734E-1,3.0365232E-1,6.8756857E0,-4.3837895E0,2.3734725E0,1.7513098E0,-5.580207E-1,6.67709E-1,2.4379835E0,3.8949263E-1,-1.387783E0,1.0789183E1,1.9799486E0,5.1112556E0,-5.3880124E0,-1.7529753E0,6.8505154E0,-5.647217E0,2.679403E0,-6.505396E-1,1.3253171E0,1.451332E0,-1.7522709E0,3.1362176E-1,8.387725E0,-3.703509E0,3.7839365E0,7.2987676E-1,1.1776405E1,2.8475094E0,-4.8381245E-1,2.3496428E0,-4.9577523E-2,-3.1285453E0,-6.77845E0,-4.1844788E0,1.5606815E0,2.5113666E0,1.1515389E-1,-2.8754847E0,9.2489666E-1,3.5276814E0,-2.2675247E0,-4.355183E-1,-2.1185687E0,-5.0227165E0,2.6268685E0,2.434157E0,1.00765705E-1,2.5223105E0,-2.6048295E0,1.2200192E-1,-8.422933E-1,-1.068051E0,3.5909681E0,1.2441559E0,-1.382307E0,6.642485E-1,2.4372704E0,7.955169E-1,3.9212992E0,2.60499E-2,1.0146835E0,-1.1332351E0,5.0407565E-1,-2.4820037E0,-1.3869333E0,-2.66111E-1,-1.8261285E0,5.66979E-1,2.6015594E0,5.201672E-1,-1.1104054E0,-2.0433223E-1,2.0102873E-1,-6.305241E-2,-7.26543E-1,-3.6969832E-1,-2.1151452E0,4.458403E-1,3.5854728E0,4.5547017E-1,3.6925619E0,-6.3704914E-1,5.7050437E-1,1.4741299E0,-6.978087E-1,-1.0632359E0,9.818978E-1],"categories":[],"categories_nodes":[],"categories_segments":[],"categories_sizes":[],"default_left":[0,0,0,0,0,0,0,0,0,0,0,0,0,0,0,0,0,0,0,0,0,0,0,0,0,0,0,0,0,0,0,0,0,0,0,0,0,0,0,0,0,0,0,0,0,0,0,0,0,0,0,0,0,0,0,0,0,0,0,0,0,0,0,0,0,0,0,0,0,0,0,0,0,0,0,0,0,0,0,0,0,0,0,0,0,0,0,0,0,0,0,0,0,0,0],"id":9,"left_children":[1,3,5,7,9,11,13,15,17,19,21,23,25,27,-1,29,31,33,35,37,39,41,43,45,47,49,51,53,55,57,59,61,63,-1,65,67,-1,-1,-1,69,71,73,-1,-1,-1,-1,-1,75,77,79,81,83,85,87,89,91,93,-1,-1,-1,-1,-1,-1,-1,-1,-1,-1,-1,-1,-1,-1,-1,-1,-1,-1,-1,-1,-1,-1,-1,-1,-1,-1,-1,-1,-1,-1,-1,-1,-1,-1,-1,-1,-1,-1],"loss_changes":[2.8258112E2,2.9513824E2,1.5868219E2,5.5674915E2,3.233075E2,1.698737E2,1.602849E2,2.283489E2,2.2771088E2,2.7545322E2,1.9675162E2,2.4172641E2,1.6709125E2,1.6183669E2,0E0,9.039775E2,9.242117E2,2.9095276E1,2.6410137E1,4.4364708E1,5.419281E1,1.23239044E2,4.5956238E1,1.6705908E2,1.3389026E2,2.8632562E2,3.8499713E2,8.470642E1,8.3101135E1,4.3128027E2,6.41806E2,3.953266E2,1.4553055E2,0E0,3.621588E1,8.564247E0,0E0,0E0,0E0,4.0672066E1,6.859558E0,2.5969353E1,0E0,0E0,0E0,0E0,0E0,2.0265796E2,3.5104416E1,2.1632019E2,6.662067E1,5.2799698E1,3.864448E2,3.1594714E2,1.16198074E2,5.780792E1,1.1097748E2,0E0,0E0,0E0,0E0,0E0,0E0,0E0,0E0,0E0,0E0,0E0,0E0,0E0,0E0,0E0,0E0,0E0,0E0,0E0,0E0,0E0,0E0,0E0,0E0,0E0,0E0,0E0,0E0,0E0,0E0,0E0,0E0,0E0,0E0,0E0,0E0,0E0,0E0],"parents":[2147483647,0,0,1,1,2,2,3,3,4,4,5,5,6,6,7,7,8,8,9,9,10,10,11,11,12,12,13,13,15,15,16,16,17,17,18,18,19,19,20,20,21,21,22,22,23,23,24,24,25,25,26,26,27,27,28,28,29,29,30,30,31,31,32,32,34,34,35,35,39,39,40,40,41,41,47,47,48,48,49,49,50,50,51,51,52,52,53,53,54,54,55,55,56,56],"right_children":[2,4,6,8,10,12,14,16,18,20,22,24,26,28,-1,30,32,34,36,38,40,42,44,46,48,50,52,54,56,58,60,62,64,-1,66,68,-1,-1,-1,70,72,74,-1,-1,-1,-1,-1,76,78,80,82,84,86,88,90,92,94,-1,-1,-1,-1,-1,-1,-1,-1,-1,-1,-1,-1,-1,-1,-1,-1,-1,-1,-1,-1,-1,-1,-1,-1,-1,-1,-1,-1,-1,-1,-1,-1,-1,-1,-1,-1,-1,-1],"split_conditions":[2.4345381E2,2.9800737E1,3.4538843E2,2.9301878E1,6.4999986E0,1.0483357E1,1.8737333E1,9.3E0,2.8290002E0,2E-1,3.3161064E1,2.5130882E2,2.9500786E1,7E-1,2.4379835E0,8.700001E0,1.4576915E1,1E-1,7.5999985E0,9.224834E0,3.656084E0,3.0414999E0,9.8E0,-4.5626664E0,3.3217596E2,2.427265E1,-4.4183335E-1,4.4915E0,3.4790527E2,7.2999997E0,2.1019166E0,3.2066667E-1,1.9001915E1,7.2987676E-1,1.888732E2,7.1456666E0,-4.8381245E-1,2.3496428E0,-4.9577523E-2,3.4019172E0,6.2415004E0,8.2E0,1.5606815E0,2.5113666E0,1.1515389E-1,-2.8754847E0,9.2489666E-1,3.2031305E2,-2.046E0,2.0945072E1,-2.2500183E-3,3.00767E1,3.222718E2,3.2727497E0,1.2820666E1,2.5227501E0,1.4576915E1,1.2200192E-1,-8.422933E-1,-1.068051E0,3.5909681E0,1.2441559E0,-1.382307E0,6.642485E-1,2.4372704E0,7.955169E-1,3.9212992E0,2.60499E-2,1.0146835E0,-1.1332351E0,5.0407565E-1,-2.4820037E0,-1.3869333E0,-2.66111E-1,-1.8261285E0,5.66979E-1,2.6015594E0,5.201672E-1,-1.1104054E0,-2.0433223E-1,2.0102873E-1,-6.305241E-2,-7.26543E-1,-3.6969832E-1,-2.1151452E0,4.458403E-1,3.5854728E0,4.5547017E-1,3.6925619E0,-6.3704914E-1,5.7050437E-1,1.4741299E0,-6.978087E-1,-1.0632359E0,9.818978E-1],"split_indices":[3,2,3,2,1,2,0,1,0,1,2,3,2,1,0,1,0,1,1,0,0,0,1,0,3,2,0,0,3,1,0,0,0,0,3,0,0,0,0,0,0,1,0,0,0,0,0,3,0,2,0,2,3,0,0,0,0,0,0,0,0,0,0,0,0,0,0,0,0,0,0,0,0,0,0,0,0,0,0,0,0,0,0,0,0,0,0,0,0,0,0,0,0,0,0],"split_type":[0,0,0,0,0,0,0,0,0,0,0,0,0,0,0,0,0,0,0,0,0,0,0,0,0,0,0,0,0,0,0,0,0,0,0,0,0,0,0,0,0,0,0,0,0,0,0,0,0,0,0,0,0,0,0,0,0,0,0,0,0,0,0,0,0,0,0,0,0,0,0,0,0,0,0,0,0,0,0,0,0,0,0,0,0,0,0,0,0,0,0,0,0,0,0],"sum_hessian":[2.684E3,1.614E3,1.07E3,1.58E3,3.4E1,9.85E2,8.5E1,1.568E3,1.2E1,2.5E1,9E0,3.2E1,9.53E2,8.3E1,2E0,1.493E3,7.5E1,6E0,6E0,2E0,2.3E1,5E0,4E0,3E0,2.9E1,9.09E2,4.4E1,6.3E1,2E1,1.48E3,1.3E1,5.2E1,2.3E1,1E0,5E0,5E0,1E0,1E0,1E0,1E1,1.3E1,4E0,1E0,3E0,1E0,2E0,1E0,2.5E1,4E0,7.94E2,1.15E2,7E0,3.7E1,3.6E1,2.7E1,3E0,1.7E1,1.438E3,4.2E1,3E0,1E1,5E0,4.7E1,1.8E1,5E0,1E0,4E0,1E0,4E0,9E0,1E0,6E0,7E0,2E0,2E0,2E1,5E0,1E0,3E0,6.5E2,1.44E2,1.6E1,9.9E1,3E0,4E0,3.4E1,3E0,3.4E1,2E0,1.2E1,1.5E1,2E0,1E0,1.5E1,2E0],"tree_param":{"num_deleted":"0","num_feature":"4","num_nodes":"95","size_leaf_vector":"1"}},{"base_weights":[2.8416503E-2,-1.9086062E-3,2.3929393E0,1.8300308E-1,-3.675792E-1,1.2026421E0,5.1293883E0,9.2925884E-2,7.3030667E0,1.5308585E0,-7.145511E-1,2.056976E0,-3.796856E0,-7.577324E-1,2.0087657E0,1.0250584E0,-2.0794675E-1,-4.2256913E0,1.0942449E1,1.0907027E-1,7.6512895E0,-3.9657516E0,-5.6966454E-1,1.266768E0,5.296221E0,-1.5321003E0,2.003689E-2,-1.2996918E0,9.587122E-1,8.530692E-1,4.866534E0,-3.2086902E0,-5.2115735E-2,-2.5152926E0,2.4851093E0,1.0684652E1,5.2783403E0,1.5325181E0,-3.5419233E0,1.4541367E0,1.9195452E1,-6.6101503E0,4.7937145E0,5.2563105E0,-6.3396364E-1,-1.8303122E-1,4.4385047E0,1.8462598E0,4.0834296E-1,2.9078192E-1,-1.5234842E0,3.474645E0,-9.407957E-1,-1.9116362E0,-3.604525E-1,-1.5456094E-1,1.7355417E-1,3.5037036E0,-5.3463703E-1,1.561692E-1,3.2484071E0,2.0701272E0,-1.865129E0,1.4024649E0,-1.2824628E0,9.797055E-1,6.9840865E0,-2.9324968E0,-1.0275835E0,1.8044498E0,-5.6311685E-1,2.5610723E0,-9.17096E-1,-6.643157E-1,-1.07623465E-1,-5.525931E-1,5.2171624E-1,2.298046E0,-4.0095848E-1],"categories":[],"categories_nodes":[],"categories_segments":[],"categories_sizes":[],"default_left":[0,0,0,0,0,0,0,0,0,0,0,0,0,0,0,0,0,0,0,0,0,0,0,0,0,0,0,0,0,0,0,0,0,0,0,0,0,0,0,0,0,0,0,0,0,0,0,0,0,0,0,0,0,0,0,0,0,0,0,0,0,0,0,0,0,0,0,0,0,0,0,0,0,0,0,0,0,0,0],"id":10,"left_children":[1,3,5,7,9,11,13,15,17,19,21,23,25,27,-1,29,31,33,35,37,39,41,43,45,47,-1,-1,-1,-1,49,51,53,55,-1,-1,-1,57,59,61,63,65,67,69,71,73,75,77,-1,-1,-1,-1,-1,-1,-1,-1,-1,-1,-1,-1,-1,-1,-1,-1,-1,-1,-1,-1,-1,-1,-1,-1,-1,-1,-1,-1,-1,-1,-1,-1],"loss_changes":[1.925309E2,1.7938693E2,1.0457558E2,1.1293896E3,5.8799963E2,1.1459109E2,9.729523E1,4.8848218E2,9.6930554E2,1.2000355E3,3.5291647E2,4.960383E1,2.0588837E1,5.6240364E1,0E0,2.766429E2,6.156737E2,3.815836E2,2.1877737E3,5.926889E2,1.8321516E3,7.729199E2,2.7417154E2,8.818164E1,5.1280975E0,0E0,0E0,0E0,0E0,2.861344E2,1.00367456E3,4.0506647E2,3.6621997E2,0E0,0E0,0E0,6.98689E2,7.657065E2,9.368235E2,3.5211508E2,5.0960815E2,2.1850806E2,7.645656E1,2.4427779E2,3.106382E2,4.784419E1,1.2186877E2,0E0,0E0,0E0,0E0,0E0,0E0,0E0,0E0,0E0,0E0,0E0,0E0,0E0,0E0,0E0,0E0,0E0,0E0,0E0,0E0,0E0,0E0,0E0,0E0,0E0,0E0,0E0,0E0,0E0,0E0,0E0,0E0],"parents":[2147483647,0,0,1,1,2,2,3,3,4,4,5,5,6,6,7,7,8,8,9,9,10,10,11,11,12,12,13,13,15,15,16,16,17,17,18,18,19,19,20,20,21,21,22,22,23,23,24,24,29,29,30,30,31,31,32,32,36,36,37,37,38,38,39,39,40,40,41,41,42,42,43,43,44,44,45,45,46,46],"right_children":[2,4,6,8,10,12,14,16,18,20,22,24,26,28,-1,30,32,34,36,38,40,42,44,46,48,-1,-1,-1,-1,50,52,54,56,-1,-1,-1,58,60,62,64,66,68,70,72,74,76,78,-1,-1,-1,-1,-1,-1,-1,-1,-1,-1,-1,-1,-1,-1,-1,-1,-1,-1,-1,-1,-1,-1,-1,-1,-1,-1,-1,-1,-1,-1,-1,-1],"split_conditions":[2.2558167E1,1.1464417E1,5E-1,1.1199834E1,1.06957054E2,2E-1,1.06957054E2,1.405845E1,1.5226764E1,8.80845E1,1.2276044E2,1E-1,2.3837336E1,2.2985252E1,2.0087657E0,4.2999997E0,1.4458382E1,3E-1,1.6039202E1,6.5523315E1,1.4118243E1,6.1000004E0,1.27787544E2,1.6179987E1,2.3837336E1,-1.5321003E0,2.003689E-2,-1.2996918E0,9.587122E-1,1.0695667E1,6.1000004E0,2.2443501E2,4.033167E0,-2.5152926E0,2.4851093E0,1.0684652E1,8E-1,6.14806E1,1.2287555E1,1.29249525E1,1.3489415E1,1.53394165E1,1.8723461E1,1.8547752E1,1.3095668E1,2.3837336E1,1.757744E1,1.8462598E0,4.0834296E-1,2.9078192E-1,-1.5234842E0,3.474645E0,-9.407957E-1,-1.9116362E0,-3.604525E-1,-1.5456094E-1,1.7355417E-1,3.5037036E0,-5.3463703E-1,1.561692E-1,3.2484071E0,2.0701272E0,-1.865129E0,1.4024649E0,-1.2824628E0,9.797055E-1,6.9840865E0,-2.9324968E0,-1.0275835E0,1.8044498E0,-5.6311685E-1,2.5610723E0,-9.17096E-1,-6.643157E-1,-1.07623465E-1,-5.525931E-1,5.2171624E-1,2.298046E0,-4.0095848E-1],"split_indices":[0,0,1,0,3,1,3,2,2,3,3,1,0,0,0,1,2,1,2,3,2,1,3,2,0,0,0,0,0,0,1,3,0,0,0,0,1,3,2,2,0,0,2,0,0,0,2,0,0,0,0,0,0,0,0,0,0,0,0,0,0,0,0,0,0,0,0,0,0,0,0,0,0,0,0,0,0,0,0],"split_type":[0,0,0,0,0,0,0,0,0,0,0,0,0,0,0,0,0,0,0,0,0,0,0,0,0,0,0,0,0,0,0,0,0,0,0,0,0,0,0,0,0,0,0,0,0,0,0,0,0,0,0,0,0,0,0,0,0,0,0,0,0,0,0,0,0,0,0,0,0,0,0,0,0,0,0,0,0,0,0],"sum_hessian":[2.684E3,2.651E3,3.3E1,1.761E3,8.9E2,2.4E1,9E0,1.74E3,2.1E1,1.37E2,7.53E2,2.1E1,3E0,2E0,7E0,4.24E2,1.316E3,5E0,1.6E1,1.12E2,2.5E1,3.1E1,7.22E2,1.8E1,3E0,2E0,1E0,1E0,1E0,4.07E2,1.7E1,6.4E1,1.252E3,4E0,1E0,2E0,1.4E1,8.1E1,3.1E1,1.7E1,8E0,2.4E1,7E0,7E0,7.15E2,1.3E1,5E0,2E0,1E0,4E2,7E0,9E0,8E0,2.4E1,4E1,7.22E2,5.3E2,7E0,7E0,7.4E1,7E0,6E0,2.5E1,1.1E1,6E0,2E0,6E0,1.1E1,1.3E1,6E0,1E0,5E0,2E0,1.05E2,6.1E2,7E0,6E0,3E0,2E0],"tree_param":{"num_deleted":"0","num_feature":"4","num_nodes":"79","size_leaf_vector":"1"}},{"base_weights":[2.9871032E-2,1.4931968E-1,-3.673775E-1,-5.595729E-1,3.2420668E-1,4.8186874E-1,-8.85654E-1,7.8887206E-1,-1.2642984E0,9.3637097E-1,-7.0863776E-2,1.6362672E-1,4.8474703E0,-1.0087659E0,3.40305E0,2.4443413E-1,6.6212106E0,-5.0336437E0,-9.413243E-1,7.4768656E-1,1.2937405E1,-1.2079669E-1,8.288066E0,-1.2546958E0,9.931897E-1,-1.6684325E0,5.9121604E0,-1.1493611E0,2.7087226E0,-1.2645084E0,4.5863605E0,3.3826222E0,-4.9801055E-1,-1.4997036E0,8.13205E0,9.428962E-1,-7.487119E0,-1.7138202E0,2.4643534E-1,-7.633374E-1,1.0794947E0,7.0811553E0,1.8924669E0,-1.5061406E0,4.1140918E-2,5.787071E0,2.2295845E0,-3.496043E0,3.7664827E-2,2.8299232E0,-1.2431102E-1,7.5516663E0,-4.843979E-1,-4.3168125E0,-9.223959E-1,2.8135176E0,3.7141107E-2,2.4656794E0,1.8641719E0,-9.389846E-1,1.2255052E0,-1.3203692E0,-1.3673685E-2,3.718176E0,1.6170707E-1,-1.243087E0,1.7381076E0,-2.951424E0,-1.0184602E0,-1.7830977E-1,-9.4396085E-1,1.5248542E0,-1.24762736E-1,1.8166091E0,-3.5709462E-1,1.027418E0,1.5010118E-1,-2.558138E0,4.546331E0,3.1610038E0,-5.5268395E-1,3.5254657E0,-1.12495385E-2,1.3764049E0,-1.0806212E0,9.2738354E-1,-1.4811475E0,4.2360297E-1,-8.139354E-1,2.6089036E-1,1.3647368E0,-1.0108869E0,1.2973313E-1,2.9442163E0,7.2645414E-1,-3.5192603E-1,2.3725034E-1,-1.6504896E0,-6.3237077E-1,-4.5616545E-2,-4.546225E-1,-4.072259E-1,2.0974123E0,1.1507318E0,-6.57718E-1],"categories":[],"categories_nodes":[],"categories_segments":[],"categories_sizes":[],"default_left":[0,0,0,0,0,0,0,0,0,0,0,0,0,0,0,0,0,0,0,0,0,0,0,0,0,0,0,0,0,0,0,0,0,0,0,0,0,0,0,0,0,0,0,0,0,0,0,0,0,0,0,0,0,0,0,0,0,0,0,0,0,0,0,0,0,0,0,0,0,0,0,0,0,0,0,0,0,0,0,0,0,0,0,0,0,0,0,0,0,0,0,0,0,0,0,0,0,0,0,0,0,0,0,0,0],"id":11,"left_children":[1,3,5,7,9,11,13,15,17,19,21,23,25,27,29,31,33,35,37,39,41,43,45,47,49,-1,51,53,55,-1,57,59,61,-1,63,65,67,69,71,73,75,-1,77,79,81,-1,83,85,87,89,91,93,95,97,99,-1,101,103,-1,-1,-1,-1,-1,-1,-1,-1,-1,-1,-1,-1,-1,-1,-1,-1,-1,-1,-1,-1,-1,-1,-1,-1,-1,-1,-1,-1,-1,-1,-1,-1,-1,-1,-1,-1,-1,-1,-1,-1,-1,-1,-1,-1,-1,-1,-1],"loss_changes":[1.2746025E2,2.5619202E2,2.7375644E2,3.8966333E2,4.008085E2,3.2708585E2,2.0723727E2,4.461054E2,3.2274255E2,1.4621921E3,4.21726E2,2.6127203E2,2.1019635E2,1.9963394E2,1.1849169E2,3.0457562E2,2.5132764E2,3.1498877E2,2.2888965E2,3.2220227E2,1.1334326E3,2.2507426E2,3.5692947E2,2.3765523E2,2.8770892E2,0E0,1.6096594E2,2.5697943E2,2.4911156E2,0E0,1.9193558E1,1.27145874E2,1.8698904E2,0E0,3.4928473E2,1.9672255E2,1.10911865E2,2.4031265E2,3.1923154E2,3.4493423E2,7.127305E2,0E0,9.583298E2,4.4445798E2,8.283293E2,0E0,8.529416E1,3.0005484E2,2.0419873E2,1.7466061E2,1.6045934E2,1.1551184E2,4.440671E0,5.1214874E1,1.5508896E2,0E0,1.1616933E2,4.6701477E1,0E0,0E0,0E0,0E0,0E0,0E0,0E0,0E0,0E0,0E0,0E0,0E0,0E0,0E0,0E0,0E0,0E0,0E0,0E0,0E0,0E0,0E0,0E0,0E0,0E0,0E0,0E0,0E0,0E0,0E0,0E0,0E0,0E0,0E0,0E0,0E0,0E0,0E0,0E0,0E0,0E0,0E0,0E0,0E0,0E0,0E0,0E0],"parents":[2147483647,0,0,1,1,2,2,3,3,4,4,5,5,6,6,7,7,8,8,9,9,10,10,11,11,12,12,13,13,14,14,15,15,16,16,17,17,18,18,19,19,20,20,21,21,22,22,23,23,24,24,26,26,27,27,28,28,30,30,31,31,32,32,34,34,35,35,36,36,37,37,38,38,39,39,40,40,42,42,43,43,44,44,46,46,47,47,48,48,49,49,50,50,51,51,52,52,53,53,54,54,56,56,57,57],"right_children":[2,4,6,8,10,12,14,16,18,20,22,24,26,28,30,32,34,36,38,40,42,44,46,48,50,-1,52,54,56,-1,58,60,62,-1,64,66,68,70,72,74,76,-1,78,80,82,-1,84,86,88,90,92,94,96,98,100,-1,102,104,-1,-1,-1,-1,-1,-1,-1,-1,-1,-1,-1,-1,-1,-1,-1,-1,-1,-1,-1,-1,-1,-1,-1,-1,-1,-1,-1,-1,-1,-1,-1,-1,-1,-1,-1,-1,-1,-1,-1,-1,-1,-1,-1,-1,-1,-1,-1],"split_conditions":[2.7663486E2,1.5373335E0,1.0373334E0,8.568082E1,8.301917E0,5.540002E-1,1.9726915E1,7.920507E1,1.04132835E2,8.143583E0,2.7573898E2,3.1005508E2,2.8163626E2,3.0489683E1,2.8163626E2,1.1183201E1,8.557102E0,-2.4022498E0,7E-1,1.04132835E2,1.7447933E1,1.1525623E1,8.926917E0,-3.9418328E0,-3.6876667E0,-1.6684325E0,8E-1,1.73525E0,2E-1,-1.2645084E0,3.4151074E2,1.1691704E1,1.2245293E1,-1.4997036E0,1.8792551E1,-3.0001667E0,2.5399998E-1,-5.71E-1,1.20557526E2,8.557102E0,1.6711998E2,7.0811553E0,2.3832178E2,8.379001E0,1.1609651E1,5.787071E0,1.8532135E1,-8.495997E0,-1.196E0,-5.914749E0,-3.0001667E0,3.368476E2,8.0608344E-1,2.1566973E1,3.0602274E2,2.8135176E0,2.5E0,3.154291E2,1.8641719E0,-9.389846E-1,1.2255052E0,-1.3203692E0,-1.3673685E-2,3.718176E0,1.6170707E-1,-1.243087E0,1.7381076E0,-2.951424E0,-1.0184602E0,-1.7830977E-1,-9.4396085E-1,1.5248542E0,-1.24762736E-1,1.8166091E0,-3.5709462E-1,1.027418E0,1.5010118E-1,-2.558138E0,4.546331E0,3.1610038E0,-5.5268395E-1,3.5254657E0,-1.12495385E-2,1.3764049E0,-1.0806212E0,9.2738354E-1,-1.4811475E0,4.2360297E-1,-8.139354E-1,2.6089036E-1,1.3647368E0,-1.0108869E0,1.2973313E-1,2.9442163E0,7.2645414E-1,-3.5192603E-1,2.3725034E-1,-1.6504896E0,-6.3237077E-1,-4.5616545E-2,-4.546225E-1,-4.072259E-1,2.0974123E0,1.1507318E0,-6.57718E-1],"split_indices":[3,0,0,3,0,0,0,3,3,0,3,3,3,2,3,2,2,0,1,3,2,2,0,0,0,0,1,0,1,0,3,3,2,0,2,0,0,0,3,2,3,0,3,0,2,0,2,0,0,0,0,3,0,2,3,0,1,3,0,0,0,0,0,0,0,0,0,0,0,0,0,0,0,0,0,0,0,0,0,0,0,0,0,0,0,0,0,0,0,0,0,0,0,0,0,0,0,0,0,0,0,0,0,0,0],"split_type":[0,0,0,0,0,0,0,0,0,0,0,0,0,0,0,0,0,0,0,0,0,0,0,0,0,0,0,0,0,0,0,0,0,0,0,0,0,0,0,0,0,0,0,0,0,0,0,0,0,0,0,0,0,0,0,0,0,0,0,0,0,0,0,0,0,0,0,0,0,0,0,0,0,0,0,0,0,0,0,0,0,0,0,0,0,0,0,0,0,0,0,0,0,0,0,0,0,0,0,0,0,0,0,0,0],"sum_hessian":[2.684E3,2.064E3,6.2E2,4.08E2,1.656E3,2.35E2,3.85E2,1.4E2,2.68E2,6.49E2,1.007E3,2.2E2,1.5E1,3.75E2,1E1,1.29E2,1.1E1,2E1,2.48E2,6.4E2,9E0,1.002E3,5E0,8.1E1,1.39E2,1E0,1.4E1,3.62E2,1.3E1,1E0,9E0,2.4E1,1.05E2,1E0,1E1,6E0,1.4E1,1.5E2,9.8E1,1.15E2,5.25E2,4E0,5E0,1.04E2,8.98E2,1E0,4E0,2.9E1,5.2E1,5.2E1,8.7E1,1.1E1,3E0,2.3E1,3.39E2,3E0,1E1,5E0,4E0,2E0,2.2E1,1E1,9.5E1,6E0,4E0,3E0,3E0,8E0,6E0,8.5E1,6.5E1,1.1E1,8.7E1,6E0,1.09E2,1.03E2,4.22E2,3E0,2E0,2E0,1.02E2,5E0,8.93E2,3E0,1E0,5E0,2.4E1,3.5E1,1.7E1,2.5E1,2.7E1,1.2E1,7.5E1,7E0,4E0,2E0,1E0,1.4E1,9E0,1.48E2,1.91E2,9E0,1E0,4E0,1E0],"tree_param":{"num_deleted":"0","num_feature":"4","num_nodes":"105","size_leaf_vector":"1"}},{"base_weights":[3.079758E-2,2.8244063E-1,-1.519707E-1,-9.5074683E-1,4.5212296E-1,-2.4892391E-1,2.0405931E0,-4.131377E-2,-4.6543145E0,6.387897E0,2.2882788E-1,-1.494815E0,-1.2378371E-1,1.1486579E0,6.9205637E0,-3.1485376E-1,5.8207045E0,-7.48864E-1,-6.565436E0,8.315287E0,-3.1819344E-1,-6.275428E0,3.1091884E-1,-2.6425986E0,2.0262594E0,5.885446E0,-1.4591564E-1,2.8520613E0,-7.1744055E-1,2.8325272E-1,7.4796987E0,-8.9315397E-1,1.8360319E0,3.184809E0,5.903598E-1,-4.9248376E0,2.8559246E0,-2.010307E0,-8.675475E0,9.637479E0,-1.7746427E0,3.1734393E0,-3.0025003E0,-8.976797E0,1.3715115E0,4.33148E0,2.1960127E-1,-7.833785E-1,-3.7174754E0,5.454162E0,-6.459804E-1,-3.383858E-1,2.3762352E0,-8.357308E-1,-7.455885E-3,-1.4789051E-2,6.602157E0,-2.3271806E0,1.2244114E-1,2.3662539E0,6.325785E-1,-1.8027346E-1,-2.6042433E0,8.0973464E-1,-8.8151795E-1,-5.257897E-1,-2.6420488E0,2.7120702E0,-7.488865E-1,4.3592635E-1,-1.4913375E0,-2.7854657E0,-1.1256847E0,4.308821E-1,3.607808E0,2.8906557E-1,-1.345533E0,-3.2791219E0,-4.2783377E-1,9.65849E-1,-6.2586653E-1,2.2891476E0,-1.0069841E0,-1.0526251E0,1.0313209E-1,-4.9877238E-1,1.6583008E0,-1.9522443E0,-6.1040264E-1,-3.9938068E-1,2.6940014E0,-9.1122556E-1,6.147598E-1,5.0930154E-1,-5.475942E-1,-2.4250042E-1,9.669813E-2,-8.3712286E-1,6.015565E-1,2.5209923E0,1.3462272E-1,-4.9452767E-1,5.274215E-1],"categories":[],"categories_nodes":[],"categories_segments":[],"categories_sizes":[],"default_left":[0,0,0,0,0,0,0,0,0,0,0,0,0,0,0,0,0,0,0,0,0,0,0,0,0,0,0,0,0,0,0,0,0,0,0,0,0,0,0,0,0,0,0,0,0,0,0,0,0,0,0,0,0,0,0,0,0,0,0,0,0,0,0,0,0,0,0,0,0,0,0,0,0,0,0,0,0,0,0,0,0,0,0,0,0,0,0,0,0,0,0,0,0,0,0,0,0,0,0,0,0,0,0],"id":12,"left_children":[1,3,5,7,9,11,13,15,17,19,21,23,25,27,29,31,33,35,37,39,41,43,45,47,49,51,53,55,57,-1,59,61,63,-1,-1,65,67,69,71,73,-1,-1,75,77,79,81,83,85,87,89,91,-1,-1,93,95,97,99,-1,101,-1,-1,-1,-1,-1,-1,-1,-1,-1,-1,-1,-1,-1,-1,-1,-1,-1,-1,-1,-1,-1,-1,-1,-1,-1,-1,-1,-1,-1,-1,-1,-1,-1,-1,-1,-1,-1,-1,-1,-1,-1,-1,-1,-1],"loss_changes":[1.2353242E2,2.3688248E2,3.3127634E2,4.6124377E2,1.3160148E3,2.3227835E2,2.7932336E2,1.7982079E2,1.9660577E2,4.6795496E2,5.1400024E2,5.5498926E2,1.8120114E2,1.8323312E2,2.6353912E1,1.3473262E2,7.148715E1,1.6459998E2,1.5556659E2,5.8385266E2,2.9500253E2,2.601983E2,3.4710498E2,2.0292633E2,3.1496936E2,8.030745E1,1.291255E2,3.226266E2,1.6650323E2,0E0,3.0820923E0,1.8823375E2,1.0270779E2,0E0,0E0,4.6137245E1,2.2116547E2,7.900485E1,1.1635132E0,4.9204053E2,0E0,0E0,5.1362488E1,1.1717175E2,3.227594E1,5.582379E2,4.3083136E2,2.2558743E2,2.9193573E2,3.708202E2,1.3513138E2,0E0,0E0,5.696836E2,2.979195E2,1.0651572E2,1.4031097E2,0E0,7.820662E1,0E0,0E0,0E0,0E0,0E0,0E0,0E0,0E0,0E0,0E0,0E0,0E0,0E0,0E0,0E0,0E0,0E0,0E0,0E0,0E0,0E0,0E0,0E0,0E0,0E0,0E0,0E0,0E0,0E0,0E0,0E0,0E0,0E0,0E0,0E0,0E0,0E0,0E0,0E0,0E0,0E0,0E0,0E0,0E0],"parents":[2147483647,0,0,1,1,2,2,3,3,4,4,5,5,6,6,7,7,8,8,9,9,10,10,11,11,12,12,13,13,14,14,15,15,16,16,17,17,18,18,19,19,20,20,21,21,22,22,23,23,24,24,25,25,26,26,27,27,28,28,30,30,31,31,32,32,35,35,36,36,37,37,38,38,39,39,42,42,43,43,44,44,45,45,46,46,47,47,48,48,49,49,50,50,53,53,54,54,55,55,56,56,58,58],"right_children":[2,4,6,8,10,12,14,16,18,20,22,24,26,28,30,32,34,36,38,40,42,44,46,48,50,52,54,56,58,-1,60,62,64,-1,-1,66,68,70,72,74,-1,-1,76,78,80,82,84,86,88,90,92,-1,-1,94,96,98,100,-1,102,-1,-1,-1,-1,-1,-1,-1,-1,-1,-1,-1,-1,-1,-1,-1,-1,-1,-1,-1,-1,-1,-1,-1,-1,-1,-1,-1,-1,-1,-1,-1,-1,-1,-1,-1,-1,-1,-1,-1,-1,-1,-1,-1,-1],"split_conditions":[1E-1,1.1440978E1,1.95665E1,1.0990322E1,1.191812E1,2E-1,5.0999994E0,1.9412334E1,1.6975261E2,2.6986023E2,1.2074766E1,2.0523155E1,7.2E0,1.481259E1,9.360001E0,2.838311E2,1.95665E1,5.660251E0,1.5373335E0,1.8239416E1,-5.671E0,2.8736508E2,1.2287555E1,3.2727497E0,2.3949127E2,4.3674377E1,1.3556282E1,1.3556282E1,1.9726915E1,2.8325272E-1,2.7663486E2,2.779983E2,8.712333E0,3.184809E0,5.903598E-1,2.0227501E0,1.002275E1,2.6426132E2,1.1304229E1,1.73525E0,-1.7746427E0,3.1734393E0,1.1525623E1,7.529E0,3.5654324E2,1.0149833E1,2.644823E1,2.3248336E0,8.301917E0,1.8236713E2,2.440046E1,-3.383858E-1,2.3762352E0,1.73525E0,2.451917E0,2.0416429E2,2.3307445E2,-2.3271806E0,1.7447933E1,2.3662539E0,6.325785E-1,-1.8027346E-1,-2.6042433E0,8.0973464E-1,-8.8151795E-1,-5.257897E-1,-2.6420488E0,2.7120702E0,-7.488865E-1,4.3592635E-1,-1.4913375E0,-2.7854657E0,-1.1256847E0,4.308821E-1,3.607808E0,2.8906557E-1,-1.345533E0,-3.2791219E0,-4.2783377E-1,9.65849E-1,-6.2586653E-1,2.2891476E0,-1.0069841E0,-1.0526251E0,1.0313209E-1,-4.9877238E-1,1.6583008E0,-1.9522443E0,-6.1040264E-1,-3.9938068E-1,2.6940014E0,-9.1122556E-1,6.147598E-1,5.0930154E-1,-5.475942E-1,-2.4250042E-1,9.669813E-2,-8.3712286E-1,6.015565E-1,2.5209923E0,1.3462272E-1,-4.9452767E-1,5.274215E-1],"split_indices":[1,2,0,2,2,1,1,0,3,3,2,2,2,2,2,3,0,0,0,0,0,3,2,0,3,3,2,2,0,0,3,3,0,0,0,0,0,3,2,0,0,0,2,0,3,0,3,0,0,3,2,0,0,0,0,3,3,0,2,0,0,0,0,0,0,0,0,0,0,0,0,0,0,0,0,0,0,0,0,0,0,0,0,0,0,0,0,0,0,0,0,0,0,0,0,0,0,0,0,0,0,0,0],"split_type":[0,0,0,0,0,0,0,0,0,0,0,0,0,0,0,0,0,0,0,0,0,0,0,0,0,0,0,0,0,0,0,0,0,0,0,0,0,0,0,0,0,0,0,0,0,0,0,0,0,0,0,0,0,0,0,0,0,0,0,0,0,0,0,0,0,0,0,0,0,0,0,0,0,0,0,0,0,0,0,0,0,0,0,0,0,0,0,0,0,0,0,0,0,0,0,0,0,0,0,0,0,0,0],"sum_hessian":[2.684E3,1.129E3,1.555E3,1.36E2,9.93E2,1.49E3,6.5E1,1.1E2,2.6E1,3.5E1,9.58E2,1.35E2,1.355E3,5.6E1,9E0,1.06E2,4E0,9E0,1.7E1,2.7E1,8E0,1.1E1,9.47E2,1.02E2,3.3E1,4E0,1.351E3,2.9E1,2.7E1,1E0,8E0,8.4E1,2.2E1,1E0,3E0,4E0,5E0,6E0,1.1E1,2.5E1,2E0,1E0,7E0,8E0,3E0,2E1,9.27E2,3.8E1,6.4E1,1.4E1,1.9E1,1E0,3E0,2.25E2,1.126E3,1.7E1,1.2E1,2E0,2.5E1,7E0,1E0,8.2E1,2E0,1.9E1,3E0,3E0,1E0,2E0,3E0,3E0,3E0,9E0,2E0,6E0,1.9E1,2E0,5E0,6E0,2E0,2E0,1E0,1.4E1,6E0,2.9E1,8.98E2,3.4E1,4E0,2.3E1,4.1E1,5E0,9E0,1E1,9E0,6.3E1,1.62E2,3.28E2,7.98E2,7E0,1E1,9E0,3E0,1.2E1,1.3E1],"tree_param":{"num_deleted":"0","num_feature":"4","num_nodes":"103","size_leaf_vector":"1"}},{"base_weights":[2.2284873E-2,2.5646277E-3,1.5598086E0,1.8239735E-1,-1.9685447E-1,8.5210365E-1,4.1677985E0,3.827753E-1,-7.5507027E-1,-4.7662516E0,-1.1542877E-1,-1.7787161E-1,3.4492757E0,1.9539613E0,-1.1304766E0,3.2704937E-1,6.1232104E0,-1.4199954E0,1.079877E0,-7.116873E0,2.6882162E0,-2.3935325E-1,6.7453927E-1,1.229268E0,-2.6181319E0,-4.1570187E-1,5.8514028E0,9.9917054E-1,-1.5078851E0,-1.4771251E-1,8.0541474E-1,3.518066E0,1.2458409E0,-6.6473126E-1,-4.152887E0,1.5108154E1,4.054285E-1,-3.8916948E0,-8.52227E0,5.165228E0,-1.5105381E0,-1.4396617E-1,-3.3289728E0,3.8606782E0,5.2445954E-1,-9.4694257E-1,2.2232647E0,-4.1321425E0,-8.8329697E-1,3.3860838E-1,-7.573337E-1,3.2640067E-1,2.0310757E0,1.3930011E-1,-2.658924E-1,5.975196E-1,3.589639E-2,-3.448083E-1,1.4467691E0,-9.8859733E-1,1.166555E-1,-1.8896631E0,-4.687292E-1,5.4588757E0,1.3397942E0,-8.3311445E-1,5.133349E-1,-1.429552E0,2.023759E-1,-2.885866E0,-1.2591412E0,4.430506E-1,1.7707242E0,-8.8475764E-1,2.0501548E-1,1.2915653E-1,-1.1041172E-1,-2.0311582E0,-1.853644E-1,1.9084392E0,6.8799436E-2,4.0366587E-1,1.3223648E0,-3.3811742E-1,-1.4274455E0,-5.04431E-1,6.278248E-2],"categories":[],"categories_nodes":[],"categories_segments":[],"categories_sizes":[],"default_left":[0,0,0,0,0,0,0,0,0,0,0,0,0,0,0,0,0,0,0,0,0,0,0,0,0,0,0,0,0,0,0,0,0,0,0,0,0,0,0,0,0,0,0,0,0,0,0,0,0,0,0,0,0,0,0,0,0,0,0,0,0,0,0,0,0,0,0,0,0,0,0,0,0,0,0,0,0,0,0,0,0,0,0,0,0,0,0],"id":13,"left_children":[1,3,5,7,9,11,13,15,17,19,21,23,25,-1,27,29,31,33,35,37,39,41,43,45,47,49,51,-1,-1,53,55,-1,57,59,61,63,65,67,69,71,73,75,77,-1,79,-1,81,83,85,-1,-1,-1,-1,-1,-1,-1,-1,-1,-1,-1,-1,-1,-1,-1,-1,-1,-1,-1,-1,-1,-1,-1,-1,-1,-1,-1,-1,-1,-1,-1,-1,-1,-1,-1,-1,-1,-1],"loss_changes":[8.140613E1,9.514215E1,5.9201973E1,2.6233673E2,4.6750937E2,7.5514175E1,9.434928E1,3.6587216E2,3.0167865E2,4.0462955E2,1.2125928E2,7.53279E1,7.670578E1,0E0,6.887849E1,2.5902393E2,2.8603326E2,3.708334E2,6.18324E2,4.3889038E1,7.020445E1,3.1486023E2,3.007127E2,6.804948E1,1.736256E1,1.5876273E1,1.4518188E1,0E0,0E0,2.5943875E2,4.6184613E2,0E0,6.551169E1,3.9761276E2,2.0696307E2,1.7328064E1,2.7069232E2,3.1134346E1,1.1830261E1,2.159233E0,1.1484322E1,1.3390598E2,2.943885E2,0E0,2.8622595E2,0E0,1.707854E1,2.1621246E0,4.7120066E0,0E0,0E0,0E0,0E0,0E0,0E0,0E0,0E0,0E0,0E0,0E0,0E0,0E0,0E0,0E0,0E0,0E0,0E0,0E0,0E0,0E0,0E0,0E0,0E0,0E0,0E0,0E0,0E0,0E0,0E0,0E0,0E0,0E0,0E0,0E0,0E0,0E0,0E0],"parents":[2147483647,0,0,1,1,2,2,3,3,4,4,5,5,6,6,7,7,8,8,9,9,10,10,11,11,12,12,14,14,15,15,16,16,17,17,18,18,19,19,20,20,21,21,22,22,23,23,24,24,25,25,26,26,29,29,30,30,32,32,33,33,34,34,35,35,36,36,37,37,38,38,39,39,40,40,41,41,42,42,44,44,46,46,47,47,48,48],"right_children":[2,4,6,8,10,12,14,16,18,20,22,24,26,-1,28,30,32,34,36,38,40,42,44,46,48,50,52,-1,-1,54,56,-1,58,60,62,64,66,68,70,72,74,76,78,-1,80,-1,82,84,86,-1,-1,-1,-1,-1,-1,-1,-1,-1,-1,-1,-1,-1,-1,-1,-1,-1,-1,-1,-1,-1,-1,-1,-1,-1,-1,-1,-1,-1,-1,-1,-1,-1,-1,-1,-1,-1,-1],"split_conditions":[2.2558167E1,7.251917E0,1.7373497E1,2.8E0,7.529E0,1.9995128E2,2.1261345E1,2.6000001E0,3.9456666E0,5E-1,4.7000003E0,1.662036E2,1.2245293E1,1.9539613E0,2.2985252E1,1.6081667E0,1.20557526E2,2.8560832E0,2.644823E1,7.4352508E0,1.9576189E1,3.8E0,7.7727504E0,2.2985252E1,2.3837336E1,2E-1,1E-1,9.9917054E-1,-1.5078851E0,-1.196E0,2.1756554E2,3.518066E0,2.4497989E2,4.4E0,6E0,4.2999997E0,1.7283749E1,9.602056E1,1.8678415E1,1.3556282E1,7.4352508E0,1.1464417E1,1.8565843E2,3.8606782E0,4.8999996E0,-9.4694257E-1,1.4857056E2,2.2985252E1,1.3527572E1,3.3860838E-1,-7.573337E-1,3.2640067E-1,2.0310757E0,1.3930011E-1,-2.658924E-1,5.975196E-1,3.589639E-2,-3.448083E-1,1.4467691E0,-9.8859733E-1,1.166555E-1,-1.8896631E0,-4.687292E-1,5.4588757E0,1.3397942E0,-8.3311445E-1,5.133349E-1,-1.429552E0,2.023759E-1,-2.885866E0,-1.2591412E0,4.430506E-1,1.7707242E0,-8.8475764E-1,2.0501548E-1,1.2915653E-1,-1.1041172E-1,-2.0311582E0,-1.853644E-1,1.9084392E0,6.8799436E-2,4.0366587E-1,1.3223648E0,-3.3811742E-1,-1.4274455E0,-5.04431E-1,6.278248E-2],"split_indices":[0,0,2,1,0,3,2,1,0,1,1,3,2,0,0,0,3,0,3,0,2,1,0,0,0,1,1,0,0,0,3,0,3,1,1,1,2,3,2,2,0,0,3,0,1,0,3,0,2,0,0,0,0,0,0,0,0,0,0,0,0,0,0,0,0,0,0,0,0,0,0,0,0,0,0,0,0,0,0,0,0,0,0,0,0,0,0],"split_type":[0,0,0,0,0,0,0,0,0,0,0,0,0,0,0,0,0,0,0,0,0,0,0,0,0,0,0,0,0,0,0,0,0,0,0,0,0,0,0,0,0,0,0,0,0,0,0,0,0,0,0,0,0,0,0,0,0,0,0,0,0,0,0,0,0,0,0,0,0,0,0,0,0,0,0,0,0,0,0,0,0,0,0,0,0,0,0],"sum_hessian":[2.684E3,2.651E3,3.3E1,1.394E3,1.257E3,2.7E1,6E0,1.149E3,2.45E2,2.1E1,1.236E3,2E1,7E0,4E0,2E0,1.139E3,1E1,1.8E2,6.5E1,1.6E1,5E0,1.069E3,1.67E2,1.3E1,7E0,3E0,4E0,1E0,1E0,5.72E2,5.67E2,4E0,6E0,1.42E2,3.8E1,2E0,6.3E1,6E0,1E1,3E0,2E0,1.038E3,3.1E1,1E0,1.66E2,2E0,1.1E1,3E0,4E0,2E0,1E0,1E0,3E0,3.13E2,2.59E2,2.07E2,3.6E2,4E0,2E0,4E1,1.02E2,2E1,1.8E1,1E0,1E0,1.8E1,4.5E1,5E0,1E0,7E0,3E0,1E0,2E0,1E0,1E0,2.91E2,7.47E2,1.3E1,1.8E1,7E0,1.59E2,9E0,2E0,1E0,2E0,2E0,2E0],"tree_param":{"num_deleted":"0","num_feature":"4","num_nodes":"87","size_leaf_vector":"1"}},{"base_weights":[1.9373693E-2,-2.0929506E-2,7.0548004E-1,1.111842E-2,-2.4530241E0,7.352128E-2,4.3502636E0,1.0431978E-1,-3.2425588E-1,-3.6427662E0,2.4864128E0,1.1913323E0,-1.7529768E0,7.6874957E0,1.894167E0,2.4696263E-2,3.8324287E0,-2.0106373E0,2.3592006E-1,-1.6971353E0,-2.7978508E0,3.312806E0,-3.1446333E0,-1.3969635E0,2.0773804E0,-2.6505175E0,-5.996148E-2,7.20202E-1,9.930795E0,-1.1253223E0,3.214495E0,9.9384196E-2,-1.6731455E0,6.427394E0,-2.2511423E0,-2.976866E0,-3.92559E-1,-4.103525E-1,1.2278086E0,2.9047838E-1,-3.1382265E0,3.9402038E-1,-1.3762476E0,-2.2239842E0,2.2715175E0,7.831842E0,1.2929616E0,-3.0533247E0,2.2610607E0,1.8211285E0,-1.4225758E0,3.4657793E0,3.6890576E0,-1.1232458E0,5.6058466E-1,-9.8357993E-1,4.3002386E0,9.971234E-3,1.3626705E0,-7.1426415E-1,1.5247633E0,3.149465E0,3.947777E-1,-1.7797958E0,1.3280456E-2,3.9891705E-1,-1.1984301E0,1.8926607E-1,-2.1185942E0,4.382643E-1,-3.8173226E-1,1.001924E0,1.858444E-1,-2.0080091E-1,3.3151618E-1,-1.3761297E0,-6.8793666E-1,-3.3993512E-1,-1.8912519E0,-5.16948E-1,2.9134607E0,1.2239803E0,1.7004989E-1,-5.267315E-1,-1.456002E0,6.573315E-2,9.517442E-1,7.5149935E-1,-4.448934E-1,-7.083864E-1,2.4314776E-1,2.619108E-1,1.2976899E0,1.7793326E0,2.3366226E-1],"categories":[],"categories_nodes":[],"categories_segments":[],"categories_sizes":[],"default_left":[0,0,0,0,0,0,0,0,0,0,0,0,0,0,0,0,0,0,0,0,0,0,0,0,0,0,0,0,0,0,0,0,0,0,0,0,0,0,0,0,0,0,0,0,0,0,0,0,0,0,0,0,0,0,0,0,0,0,0,0,0,0,0,0,0,0,0,0,0,0,0,0,0,0,0,0,0,0,0,0,0,0,0,0,0,0,0,0,0,0,0,0,0,0,0],"id":14,"left_children":[1,3,5,7,9,11,13,15,17,19,21,23,25,27,29,31,33,35,37,-1,39,-1,41,43,45,47,49,-1,51,53,55,57,59,61,63,65,67,69,71,73,75,-1,-1,77,-1,79,81,83,85,87,89,91,-1,-1,-1,-1,93,-1,-1,-1,-1,-1,-1,-1,-1,-1,-1,-1,-1,-1,-1,-1,-1,-1,-1,-1,-1,-1,-1,-1,-1,-1,-1,-1,-1,-1,-1,-1,-1,-1,-1,-1,-1,-1,-1],"loss_changes":[7.426114E1,1.9777017E2,3.4287976E2,7.8333466E1,2.0298705E2,2.634234E2,1.6576297E2,5.820187E2,5.153197E2,3.0125061E1,3.7199054E2,1.8637038E2,7.429901E1,8.289874E1,5.9431362E1,2.43765E2,6.617219E2,2.1145831E2,2.633263E2,0E0,2.2986603E1,0E0,3.8186787E1,1.726025E2,2.607082E2,7.021315E1,4.87283E1,0E0,4.916156E1,4.6199455E1,8.459714E1,5.408823E2,3.993811E2,5.896138E2,1.1012014E2,3.77925E2,3.5939648E2,4.0353787E2,2.0606052E2,3.0851772E0,1.2745758E1,0E0,0E0,8.18755E1,0E0,1.4245786E2,1.06967186E2,6.154712E1,4.8881006E0,2.1791464E1,2.4972101E1,2.9117088E0,0E0,0E0,0E0,0E0,4.706639E1,0E0,0E0,0E0,0E0,0E0,0E0,0E0,0E0,0E0,0E0,0E0,0E0,0E0,0E0,0E0,0E0,0E0,0E0,0E0,0E0,0E0,0E0,0E0,0E0,0E0,0E0,0E0,0E0,0E0,0E0,0E0,0E0,0E0,0E0,0E0,0E0,0E0,0E0],"parents":[2147483647,0,0,1,1,2,2,3,3,4,4,5,5,6,6,7,7,8,8,9,9,10,10,11,11,12,12,13,13,14,14,15,15,16,16,17,17,18,18,20,20,22,22,23,23,24,24,25,25,26,26,28,28,29,29,30,30,31,31,32,32,33,33,34,34,35,35,36,36,37,37,38,38,39,39,40,40,43,43,45,45,46,46,47,47,48,48,49,49,50,50,51,51,56,56],"right_children":[2,4,6,8,10,12,14,16,18,20,22,24,26,28,30,32,34,36,38,-1,40,-1,42,44,46,48,50,-1,52,54,56,58,60,62,64,66,68,70,72,74,76,-1,-1,78,-1,80,82,84,86,88,90,92,-1,-1,-1,-1,94,-1,-1,-1,-1,-1,-1,-1,-1,-1,-1,-1,-1,-1,-1,-1,-1,-1,-1,-1,-1,-1,-1,-1,-1,-1,-1,-1,-1,-1,-1,-1,-1,-1,-1,-1,-1,-1,-1],"split_conditions":[3.368476E2,3.3217596E2,1.5543583E1,1.53394165E1,2.2734219E1,4.4915E0,1.6337332E1,1.4999832E1,1.6564415E1,-3.0001667E0,2E-1,1.3527572E1,1.2622749E1,1.5687332E1,1.3009903E1,1.4078999E1,1.2E0,1.7610588E1,4E-1,-1.6971353E0,-4.4183335E-1,3.312806E0,-4.1085E0,1.5373335E0,-4.5626664E0,3.581366E2,1.6746773E1,7.20202E-1,1.2074766E1,1.8678999E1,1.6408169E1,1.3722749E1,8E0,1.888732E2,1.4113652E1,1.1726277E1,2.7663486E2,1.5822774E2,8.000001E-1,-2.1397498E0,3.34376E2,3.9402038E-1,-1.3762476E0,7.144168E-1,2.2715175E0,-8.495997E0,3.4151074E2,8.712333E0,6.7623334E0,3.5654324E2,3.5287503E2,1.6012333E1,3.6890576E0,-1.1232458E0,5.6058466E-1,-9.8357993E-1,1E-1,9.971234E-3,1.3626705E0,-7.1426415E-1,1.5247633E0,3.149465E0,3.947777E-1,-1.7797958E0,1.3280456E-2,3.9891705E-1,-1.1984301E0,1.8926607E-1,-2.1185942E0,4.382643E-1,-3.8173226E-1,1.001924E0,1.858444E-1,-2.0080091E-1,3.3151618E-1,-1.3761297E0,-6.8793666E-1,-3.3993512E-1,-1.8912519E0,-5.16948E-1,2.9134607E0,1.2239803E0,1.7004989E-1,-5.267315E-1,-1.456002E0,6.573315E-2,9.517442E-1,7.5149935E-1,-4.448934E-1,-7.083864E-1,2.4314776E-1,2.619108E-1,1.2976899E0,1.7793326E0,2.3366226E-1],"split_indices":[3,3,0,0,2,0,0,0,0,0,1,2,0,0,2,0,1,2,1,0,0,0,0,0,0,3,2,0,2,0,0,0,1,3,2,2,3,3,1,0,3,0,0,0,0,0,3,0,0,3,3,0,0,0,0,0,1,0,0,0,0,0,0,0,0,0,0,0,0,0,0,0,0,0,0,0,0,0,0,0,0,0,0,0,0,0,0,0,0,0,0,0,0,0,0],"split_type":[0,0,0,0,0,0,0,0,0,0,0,0,0,0,0,0,0,0,0,0,0,0,0,0,0,0,0,0,0,0,0,0,0,0,0,0,0,0,0,0,0,0,0,0,0,0,0,0,0,0,0,0,0,0,0,0,0,0,0,0,0,0,0,0,0,0,0,0,0,0,0,0,0,0,0,0,0,0,0,0,0,0,0,0,0,0,0,0,0,0,0,0,0,0,0],"sum_hessian":[2.684E3,2.536E3,1.48E2,2.504E3,3.2E1,1.27E2,2.1E1,1.96E3,5.44E2,2.6E1,6E0,7.9E1,4.8E1,8E0,1.3E1,1.92E3,4E1,1.35E2,4.09E2,6E0,2E1,2E0,4E0,2E1,5.9E1,3.1E1,1.7E1,3E0,5E0,4E0,9E0,1.84E3,8E1,2.8E1,1.2E1,8.4E1,5.1E1,2.48E2,1.61E2,2E0,1.8E1,1E0,3E0,1.9E1,1E0,6E0,5.3E1,2.9E1,2E0,7E0,1E1,2E0,3E0,2E0,2E0,1E0,8E0,1.814E3,2.6E1,7.3E1,7E0,1.5E1,1.3E1,4E0,8E0,1.6E1,6.8E1,4.5E1,6E0,7.8E1,1.7E2,3.5E1,1.26E2,1E0,1E0,5E0,1.3E1,1.6E1,3E0,1E0,5E0,1E1,4.3E1,1.8E1,1.1E1,1E0,1E0,6E0,1E0,7E0,3E0,1E0,1E0,5E0,3E0],"tree_param":{"num_deleted":"0","num_feature":"4","num_nodes":"95","size_leaf_vector":"1"}},{"base_weights":[1.7404601E-2,2.0878668E-1,-1.2159228E-1,1.8313093E-1,5.944702E0,-2.641037E-1,6.2394387E-1,4.3559936E-1,-4.8580852E-1,-2.9692331E-2,2.9812589E0,-1.6062997E-1,-2.8092484E0,7.1515036E0,4.064771E-1,-3.7591025E-1,8.2515806E-1,-1.9419653E0,-1.2712829E-1,-5.9704745E-1,5.836859E-1,-9.6061295E-1,-6.5473528E-3,-5.9504476E0,-1.3351254E0,3.4461377E0,2.252705E0,1.12921596E-1,3.5044007E0,1.2915905E-1,-3.150782E0,1.143397E0,-1.8587983E0,7.14746E-2,-3.8927612E0,2.9101727E0,-5.5648535E-1,9.513938E-1,-2.9009702E0,7.5896688E0,-4.2679165E-2,-1.6092039E0,-2.5182822E0,1.0926114E0,-2.3108938E0,-9.881888E-1,4.4628625E0,-3.5235264E0,3.36433E-1,2.5308545E0,2.5412564E0,-1.0213839E-1,2.5597281E0,1.7745352E-1,-2.0229118E0,1.3013626E0,2.3957378E-1,-8.4838617E-1,5.3641695E-1,-1.1857067E0,2.9919055E-1,-2.0808623E0,4.512137E-1,-6.0219574E-1,1.9719638E0,-5.761096E-1,3.323513E-2,1.6464676E-1,2.6196077E0,-2.995734E0,-6.8014383E-1,-2.3366423E0,4.0144467E0,1.6075921E-1,-1.1461851E-1,-1.7795179E0,3.9184505E-1,9.528884E-1,-3.5195214E-1,-1.7058092E0,-1.4848275E-1,1.6213187E0,2.4573956E-1,-2.128845E0,1.6573726E-1,1.1881517E0,5.628869E-3,-3.34338E-1,1.0771235E0],"categories":[],"categories_nodes":[],"categories_segments":[],"categories_sizes":[],"default_left":[0,0,0,0,0,0,0,0,0,0,0,0,0,0,0,0,0,0,0,0,0,0,0,0,0,0,0,0,0,0,0,0,0,0,0,0,0,0,0,0,0,0,0,0,0,0,0,0,0,0,0,0,0,0,0,0,0,0,0,0,0,0,0,0,0,0,0,0,0,0,0,0,0,0,0,0,0,0,0,0,0,0,0,0,0,0,0,0,0],"id":15,"left_children":[1,3,5,7,9,11,13,15,17,19,-1,21,23,25,27,29,31,33,35,-1,-1,37,39,41,43,-1,45,47,49,51,53,55,57,59,61,63,65,67,69,71,73,75,-1,77,79,-1,81,83,85,-1,87,-1,-1,-1,-1,-1,-1,-1,-1,-1,-1,-1,-1,-1,-1,-1,-1,-1,-1,-1,-1,-1,-1,-1,-1,-1,-1,-1,-1,-1,-1,-1,-1,-1,-1,-1,-1,-1,-1],"loss_changes":[7.1450455E1,1.652012E2,1.6548576E2,1.9037735E2,1.19568695E2,3.4375458E2,3.519749E2,2.5890503E2,1.6114217E2,1.5489685E1,0E0,1.5493591E2,2.2821164E2,1.440376E2,2.205915E2,3.732066E2,4.7446442E2,2.3987466E2,3.2633707E2,0E0,0E0,7.558851E2,2.8988452E2,1.562398E2,8.780562E1,0E0,7.5995544E1,1.8243706E2,7.831186E1,8.9477905E2,5.551631E2,5.417846E2,2.1358435E2,1.1942821E2,5.1960394E2,5.7159644E2,1.9951917E2,3.1783026E2,4.3090344E2,5.4957263E2,2.0656589E2,9.5959496E1,0E0,5.565931E1,1.5654193E2,0E0,9.29586E0,1.9322574E2,2.4284142E2,0E0,7.6874214E1,0E0,0E0,0E0,0E0,0E0,0E0,0E0,0E0,0E0,0E0,0E0,0E0,0E0,0E0,0E0,0E0,0E0,0E0,0E0,0E0,0E0,0E0,0E0,0E0,0E0,0E0,0E0,0E0,0E0,0E0,0E0,0E0,0E0,0E0,0E0,0E0,0E0,0E0],"parents":[2147483647,0,0,1,1,2,2,3,3,4,4,5,5,6,6,7,7,8,8,9,9,11,11,12,12,13,13,14,14,15,15,16,16,17,17,18,18,21,21,22,22,23,23,24,24,26,26,27,27,28,28,29,29,30,30,31,31,32,32,33,33,34,34,35,35,36,36,37,37,38,38,39,39,40,40,41,41,43,43,44,44,46,46,47,47,48,48,50,50],"right_children":[2,4,6,8,10,12,14,16,18,20,-1,22,24,26,28,30,32,34,36,-1,-1,38,40,42,44,-1,46,48,50,52,54,56,58,60,62,64,66,68,70,72,74,76,-1,78,80,-1,82,84,86,-1,88,-1,-1,-1,-1,-1,-1,-1,-1,-1,-1,-1,-1,-1,-1,-1,-1,-1,-1,-1,-1,-1,-1,-1,-1,-1,-1,-1,-1,-1,-1,-1,-1,-1,-1,-1,-1,-1,-1],"split_conditions":[1E-1,3.581366E2,1.6220667E1,2.7503986E2,3.2066667E-1,1.5601914E1,1.6337332E1,1.4669485E2,2.854507E2,-3.175167E0,2.9812589E0,1.3556282E1,5E-1,1.35999E2,9.8E0,1.7811815E1,1.9120665E1,2.0227501E0,2.9277896E2,-5.9704745E-1,5.836859E-1,4.795667E0,1.3684735E1,1.5770664E1,1.1E0,3.4461377E0,1.6475424E2,1.6504E1,6.5523315E1,1.7447933E1,7.7727504E0,1.6975261E2,1.6801823E1,1.2979984E1,8.818584E0,3.1644166E0,3.1005508E2,4.2165E0,5.54775E0,-4.5626664E0,1.964286E2,1.6746773E1,-2.5182822E0,2.2525835E2,1.8236713E2,-9.881888E-1,5E-1,1.9140756E2,1.673525E1,2.5308545E0,1.4669485E2,-1.0213839E-1,2.5597281E0,1.7745352E-1,-2.0229118E0,1.3013626E0,2.3957378E-1,-8.4838617E-1,5.3641695E-1,-1.1857067E0,2.9919055E-1,-2.0808623E0,4.512137E-1,-6.0219574E-1,1.9719638E0,-5.761096E-1,3.323513E-2,1.6464676E-1,2.6196077E0,-2.995734E0,-6.8014383E-1,-2.3366423E0,4.0144467E0,1.6075921E-1,-1.1461851E-1,-1.7795179E0,3.9184505E-1,9.528884E-1,-3.5195214E-1,-1.7058092E0,-1.4848275E-1,1.6213187E0,2.4573956E-1,-2.128845E0,1.6573726E-1,1.1881517E0,5.628869E-3,-3.34338E-1,1.0771235E0],"split_indices":[1,3,0,3,0,0,0,3,3,0,0,2,1,3,1,2,0,0,3,0,0,0,2,0,1,0,3,0,3,2,0,3,2,2,0,0,3,0,0,0,3,2,0,3,3,0,1,3,0,0,3,0,0,0,0,0,0,0,0,0,0,0,0,0,0,0,0,0,0,0,0,0,0,0,0,0,0,0,0,0,0,0,0,0,0,0,0,0,0],"split_type":[0,0,0,0,0,0,0,0,0,0,0,0,0,0,0,0,0,0,0,0,0,0,0,0,0,0,0,0,0,0,0,0,0,0,0,0,0,0,0,0,0,0,0,0,0,0,0,0,0,0,0,0,0,0,0,0,0,0,0,0,0,0,0,0,0,0,0,0,0,0,0,0,0,0,0,0,0,0,0,0,0,0,0,0,0,0,0,0,0],"sum_hessian":[2.684E3,1.129E3,1.555E3,1.125E3,4E0,1.306E3,2.49E2,8.17E2,3.08E2,2E0,2E0,1.256E3,5E1,7E0,2.42E2,2.65E2,5.52E2,6E1,2.48E2,1E0,1E0,2.02E2,1.054E3,1.5E1,3.5E1,3E0,4E0,2.22E2,2E1,2.25E2,4E1,4.94E2,5.8E1,3E1,3E1,3E1,2.18E2,1.02E2,1E2,4E0,1.05E3,6E0,9E0,1E1,2.5E1,1E0,3E0,1.2E1,2.1E2,2E0,1.8E1,2.14E2,1.1E1,2E1,2E1,4.7E1,4.47E2,4.6E1,1.2E1,5E0,2.5E1,1.9E1,1.1E1,1.3E1,1.7E1,7.1E1,1.47E2,9.8E1,4E0,7E0,9.3E1,1E0,3E0,3.88E2,6.62E2,2E0,4E0,5E0,5E0,8E0,1.7E1,2E0,1E0,6E0,6E0,1.6E1,1.94E2,4E0,1.4E1],"tree_param":{"num_deleted":"0","num_feature":"4","num_nodes":"89","size_leaf_vector":"1"}},{"base_weights":[1.4276997E-2,5.92995E-2,-5.739189E-1,1.2796466E-2,2.1221104E0,-1.2590755E0,1.3315909E0,2.7928272E-2,-5.2527385E0,-2.2865062E0,4.5123944E0,1.6270878E0,-1.8650157E0,3.969682E0,8.2893175E-1,1.3513351E-2,2.3526347E0,-1.8683932E0,-2.7427206E0,2.835774E-1,-4.8849473E0,-2.2004101E0,6.5089245E0,3.8120384E0,-3.492437E0,-5.485282E0,-7.179882E-1,7.8349605E-2,3.1992462E0,3.6777128E-2,-3.7204483E0,3.2856197E0,1.8717891E-1,1.1553878E0,-2.0895844E0,-1.7588469E0,3.3213303E0,-2.4745591E-1,-6.0133886E0,4.287365E-1,-4.389475E0,1.1832624E1,2.8939457E0,6.080476E0,2.1643186E-1,-6.1357474E0,-6.793011E-1,-7.8141203E0,-1.1757945E0,8.03121E-1,-3.131249E0,7.8739756E-1,-3.275498E0,-8.6277384E-1,4.01298E0,7.898808E-3,1.8920075E0,-2.0523812E-1,-1.4287115E0,7.820062E-1,-9.2100865E-1,-1.8770017E-1,2.2274234E0,-4.6354295E-3,-1.0671974E-1,-3.7745163E-1,-1.95389E0,-7.1315163E-1,1.7478557E0,-1.6016825E0,-5.930549E-1,4.461015E0,8.3988535E-1,-1.2660509E0,1.3794341E0,5.9419394E-1,3.8280048E0,-8.245444E-1,7.635228E-1,-2.2240163E-1,-2.3060315E0,2.2327347E-1,-5.62924E-1,-1.3181119E0,-2.7474556E0,-9.2865884E-1,2.819719E-1,2.5174284E0,6.457959E-2,-1.394086E0,-4.83087E-1,-2.7661246E-1,7.351558E-1,-1.8267133E0,-2.7968127E-1,6.806058E-1,1.5265332E0],"categories":[],"categories_nodes":[],"categories_segments":[],"categories_sizes":[],"default_left":[0,0,0,0,0,0,0,0,0,0,0,0,0,0,0,0,0,0,0,0,0,0,0,0,0,0,0,0,0,0,0,0,0,0,0,0,0,0,0,0,0,0,0,0,0,0,0,0,0,0,0,0,0,0,0,0,0,0,0,0,0,0,0,0,0,0,0,0,0,0,0,0,0,0,0,0,0,0,0,0,0,0,0,0,0,0,0,0,0,0,0,0,0,0,0,0,0],"id":16,"left_children":[1,3,5,7,9,11,13,15,17,19,21,23,25,-1,27,29,31,33,-1,35,37,39,41,43,45,47,49,51,53,55,57,-1,59,-1,-1,-1,61,63,65,67,69,71,73,75,77,79,81,83,85,87,89,91,93,-1,95,-1,-1,-1,-1,-1,-1,-1,-1,-1,-1,-1,-1,-1,-1,-1,-1,-1,-1,-1,-1,-1,-1,-1,-1,-1,-1,-1,-1,-1,-1,-1,-1,-1,-1,-1,-1,-1,-1,-1,-1,-1,-1],"loss_changes":[7.113834E1,2.3931064E2,2.5104092E2,1.9463838E2,5.8989905E2,2.4962134E2,2.9411264E2,8.1566185E1,7.506613E1,1.349495E2,4.9680585E2,2.92961E2,4.819094E2,0E0,8.8705124E1,2.1043954E2,2.772753E2,1.725883E2,0E0,2.2485606E2,5.0843307E1,5.368027E1,5.0461877E2,1.4549936E2,5.5319916E1,2.7182294E2,3.3288974E2,9.532263E1,7.0863716E1,1.5750835E2,4.4196136E1,0E0,1.10453545E2,0E0,0E0,0E0,1.3421474E2,6.986533E-2,1.0810364E1,8.9573586E1,8.992462E-1,2.601775E2,2.3763043E2,2.7596164E2,6.2228912E1,2.776892E1,9.9172325E0,4.251233E1,4.7586937E1,2.4800003E2,7.32034E1,9.607865E1,4.04728E1,0E0,9.09111E0,0E0,0E0,0E0,0E0,0E0,0E0,0E0,0E0,0E0,0E0,0E0,0E0,0E0,0E0,0E0,0E0,0E0,0E0,0E0,0E0,0E0,0E0,0E0,0E0,0E0,0E0,0E0,0E0,0E0,0E0,0E0,0E0,0E0,0E0,0E0,0E0,0E0,0E0,0E0,0E0,0E0,0E0],"parents":[2147483647,0,0,1,1,2,2,3,3,4,4,5,5,6,6,7,7,8,8,9,9,10,10,11,11,12,12,14,14,15,15,16,16,17,17,19,19,20,20,21,21,22,22,23,23,24,24,25,25,26,26,27,27,28,28,29,29,30,30,32,32,36,36,37,37,38,38,39,39,40,40,41,41,42,42,43,43,44,44,45,45,46,46,47,47,48,48,49,49,50,50,51,51,52,52,54,54],"right_children":[2,4,6,8,10,12,14,16,18,20,22,24,26,-1,28,30,32,34,-1,36,38,40,42,44,46,48,50,52,54,56,58,-1,60,-1,-1,-1,62,64,66,68,70,72,74,76,78,80,82,84,86,88,90,92,94,-1,96,-1,-1,-1,-1,-1,-1,-1,-1,-1,-1,-1,-1,-1,-1,-1,-1,-1,-1,-1,-1,-1,-1,-1,-1,-1,-1,-1,-1,-1,-1,-1,-1,-1,-1,-1,-1,-1,-1,-1,-1,-1,-1],"split_conditions":[7.2999997E0,6.1000004E0,1.4576915E1,6E0,2.16025E0,1.609969E1,1.47415E1,5.799999E0,6.099834E0,1.5662254E2,1.4249365E2,1.2472749E1,1.8892282E1,3.969682E0,1.9001915E1,5.5000005E0,-5.71E-1,1.477755E1,-2.7427206E0,6.4999986E0,-2.6230834E0,1.4303997E1,2.019333E2,1.5662254E2,1.02E1,1.7887488E2,6.5498333E0,1.8095667E1,9.360001E0,5.4999995E0,1.7654688E1,3.2856197E0,1.9576189E1,1.1553878E0,-2.0895844E0,-1.7588469E0,8.9873795E1,-3.9418328E0,1.5141414E1,6.7000003E0,1.7373497E1,1.3722749E1,2.1147209E2,1.19162315E2,9.885251E0,1.3191499E1,1.4078999E1,2.59775E0,6.7623334E0,1.9602652E1,1.0301918E1,1.5929002E1,1.8422476E2,-8.6277384E-1,1.57908325E1,7.898808E-3,1.8920075E0,-2.0523812E-1,-1.4287115E0,7.820062E-1,-9.2100865E-1,-1.8770017E-1,2.2274234E0,-4.6354295E-3,-1.0671974E-1,-3.7745163E-1,-1.95389E0,-7.1315163E-1,1.7478557E0,-1.6016825E0,-5.930549E-1,4.461015E0,8.3988535E-1,-1.2660509E0,1.3794341E0,5.9419394E-1,3.8280048E0,-8.245444E-1,7.635228E-1,-2.2240163E-1,-2.3060315E0,2.2327347E-1,-5.62924E-1,-1.3181119E0,-2.7474556E0,-9.2865884E-1,2.819719E-1,2.5174284E0,6.457959E-2,-1.394086E0,-4.83087E-1,-2.7661246E-1,7.351558E-1,-1.8267133E0,-2.7968127E-1,6.806058E-1,1.5265332E0],"split_indices":[1,1,0,1,0,2,0,1,0,3,3,0,2,0,0,1,0,2,0,1,0,0,3,3,1,3,0,0,2,1,2,0,2,0,0,0,3,0,2,1,2,0,3,3,0,0,0,0,0,2,0,0,3,0,2,0,0,0,0,0,0,0,0,0,0,0,0,0,0,0,0,0,0,0,0,0,0,0,0,0,0,0,0,0,0,0,0,0,0,0,0,0,0,0,0,0,0],"split_type":[0,0,0,0,0,0,0,0,0,0,0,0,0,0,0,0,0,0,0,0,0,0,0,0,0,0,0,0,0,0,0,0,0,0,0,0,0,0,0,0,0,0,0,0,0,0,0,0,0,0,0,0,0,0,0,0,0,0,0,0,0,0,0,0,0,0,0,0,0,0,0,0,0,0,0,0,0,0,0,0,0,0,0,0,0,0,0,0,0,0,0,0,0,0,0,0,0],"sum_hessian":[2.684E3,2.494E3,1.9E2,2.44E3,5.4E1,1.4E2,5E1,2.434E3,6E0,1.9E1,3.5E1,2.4E1,1.16E2,1E0,4.9E1,2.42E3,1.4E1,4E0,2E0,1E1,9E0,8E0,2.7E1,1.7E1,7E0,2.7E1,8.9E1,3.8E1,1.1E1,2.406E3,1.4E1,2E0,1.2E1,2E0,2E0,3E0,7E0,2E0,7E0,4E0,4E0,1E1,1.7E1,1E1,7E0,3E0,4E0,1.7E1,1E1,5.5E1,3.4E1,3.2E1,6E0,1E0,1E1,2.403E3,3E0,4E0,1E1,7E0,5E0,4E0,3E0,1E0,1E0,1E0,6E0,3E0,1E0,2E0,2E0,7E0,3E0,3E0,1.4E1,7E0,3E0,3E0,4E0,1E0,2E0,2E0,2E0,6E0,1.1E1,5E0,5E0,3E0,5.2E1,1.6E1,1.8E1,1.6E1,1.6E1,2E0,4E0,5E0,5E0],"tree_param":{"num_deleted":"0","num_feature":"4","num_nodes":"97","size_leaf_vector":"1"}},{"base_weights":[1.1103739E-2,9.2116056E-4,2.1039445E0,7.397541E-2,-2.4366356E-1,5.360775E0,5.908178E-1,3.1179992E-2,1.9886149E0,-2.6899486E0,-4.5816604E-2,3.4419996E-1,1.9148434E0,3.8593054E-2,1.866478E0,6.0543038E-2,-1.8500078E0,4.4888453E0,-3.8682413E0,-3.7611334E0,2.8683214E0,5.3276396E0,-1.2208984E-1,2.730646E-1,-1.3296433E-1,1.66749E-1,6.731661E-1,-5.891785E-1,1.4269128E-1,-4.5381207E0,-1.4463973E-1,5.9143715E0,-1.3175611E0,-4.481363E0,6.1535084E-1,-4.3775935E0,2.727291E0,3.243394E0,1.8913528E-1,3.3672178E0,2.8818572E0,7.628391E-1,-5.4681396E-1,-1.7908803E-1,5.6646156E-1,-5.7436824E-3,-6.3081676E-1,1.0106494E0,3.1683736E-2,1.5462604E-1,-2.1387956E0,3.125602E0,-3.7468645E-1,1.2888215E0,7.4412713E0,-1.7399207E0,-5.929917E-1,5.4331785E-1,-1.4985237E0,-2.5980234E-1,1.264118E0,-1.0365254E0,4.117058E-1,3.490162E-2,1.189439E0,8.252486E-1,-1.3936435E-1,-5.177552E-1,7.042589E-2,2.4220462E-1,-5.9563067E-2],"categories":[],"categories_nodes":[],"categories_segments":[],"categories_sizes":[],"default_left":[0,0,0,0,0,0,0,0,0,0,0,0,0,0,0,0,0,0,0,0,0,0,0,0,0,0,0,0,0,0,0,0,0,0,0,0,0,0,0,0,0,0,0,0,0,0,0,0,0,0,0,0,0,0,0,0,0,0,0,0,0,0,0,0,0,0,0,0,0,0,0],"id":17,"left_children":[1,3,5,7,9,11,13,15,17,19,21,-1,-1,23,25,27,29,31,33,35,37,39,41,43,-1,-1,-1,45,47,49,51,53,-1,55,-1,57,59,-1,61,-1,63,65,67,-1,69,-1,-1,-1,-1,